#include "nnom.h"

/* Weights, bias and Q format */
#define TENSOR_CONV1D_KERNEL_0 {43, -53, 35, 36, -18, 8, 64, 1, -45, -30, -40, -24, -21, 21, -18, 24, 75, -5, -55, 55, 0, -81, -12, 1, 3, 2, 8, 69, -1, -53, 23, -56, -68, 4, -39, -17, 3, -37, -27, 34, -25, -22, 3, 56, 31, -24, 62, 52, 53, -49, 26, -64, -1, 10, -47, 77, 21, 8, 64, -6, 68, 6, 12, 43, -47, 69, -36, -4, 52, -53, -54, 58, -58, 52, 66, -61, 1, 25, -36, 37, 59, -51, 28, 7, -43, -1, 26, -69, -47, -14, 14, 29, -34, 15, 24, -37, -18, 20, 0, -50, 58, 17, 60, 39, 5, -57, 28, 4, 43, 59, -29, 66, -36, -9, 51, 51, -60, -48, 46, 5, -22, 54, -39, -49, -3, 17, -28, -74, 77, 56, 25, -51, -40, -19, 13, 1, -4, -6, 16, 41, -29, 71, 50, 22, 59, -30, 75, -48, 33, -27, -8, 70, 54, 71, 1, 43, 15, 7, -15, 74, -55, 82, 19, -51, -20, -54, 14, -31, -59, 29, -12, -20, -46, -19, -74, 53, -8, -1, 15, 25, 51, -18, -76, 16, 58, -80, -60, -29, -9, -4, -62, -16, -46, -28, -53, 8, 41, -23, -31, 46, 14, -48, 11, -66, 9, 9, 32, 83, 67, 37, 56, 27, 32, 28, 15, 45, 53, 56, -31, 49, -13, 32, 44, -17, -69, 19, 59, -74, -12, -44, -64, 15, -48, -28}

#define TENSOR_CONV1D_KERNEL_0_DEC_BITS {8}

#define TENSOR_CONV1D_BIAS_0 {26, -35, 12, 40, -15, 84, 106, 56, -2, 36, -45, -5, -15, 33, 20, 77, 54, -41, 62, 8, 7, 37, -23, 90, -59, -2}

#define TENSOR_CONV1D_BIAS_0_DEC_BITS {10}

#define CONV1D_BIAS_LSHIFT {2}

#define CONV1D_OUTPUT_RSHIFT {8}

#define TENSOR_LSTM_LSTM_CELL_KERNEL_0 {43, 6, -5, 42, 25, -23, 17, 7, 11, -9, 11, -8, 29, -7, 41, 22, 43, 37, 33, 8, 53, -7, 10, 40, -5, -22, -48, 0, 18, 4, 15, 54, -28, -29, -13, 11, 11, 37, -14, 50, 27, 39, 23, 9, -5, 6, 35, 6, 49, -22, 30, -8, -11, 3, 22, 23, -36, 13, -4, 41, -21, 6, 56, 33, -19, 29, 27, -17, -23, -18, 5, 2, -26, 8, 2, -18, -18, -9, -23, 24, 45, 50, -7, -14, -7, -26, -5, 22, -17, 27, -6, -25, 13, -20, -17, -18, -7, 7, -12, 16, 34, 21, -11, -17, -1, 40, 35, 15, -27, -47, -27, -28, -22, -2, -17, 19, -12, 22, 26, 0, 29, -6, -27, -6, 18, 20, 27, 28, 4, -5, 2, 1, 34, -48, -13, 15, 0, 1, -23, -7, 19, -31, -31, 6, 42, 42, 41, 18, 34, -35, -25, -1, 53, 16, -23, 37, 21, -11, 47, 46, 24, 46, -7, -3, 11, -32, -17, 2, 7, -10, 5, 10, 8, 10, -21, -5, 13, -6, 13, -17, 29, -27, 46, 48, 14, 10, -28, 25, 46, 12, 1, 17, 16, 9, 50, -8, -20, -21, -36, -29, 41, 4, -10, 14, -5, 17, 9, -20, 23, -12, 35, 51, -18, 56, 22, -7, 26, -13, -40, 39, -22, -17, 45, 21, -23, -22, 10, 21, 17, 28, -6, 52, 63, 25, 43, 25, -8, 50, -14, 10, 7, 10, 27, 34, -8, 48, -12, -6, -16, 50, 36, -10, -19, 18, -29, 6, -35, 36, 45, 54, -25, -6, -14, -39, -41, 35, 18, 25, 34, 18, 45, -24, 45, -20, 28, -15, 29, -14, 41, 53, -13, -9, 3, -13, 22, 40, 33, 26, 5, 15, 28, -13, 42, 17, 27, 33, 20, 55, 41, 34, -22, -33, 29, 31, 14, -3, -10, 6, 56, 52, 10, 40, 50, 53, -16, 41, 15, 5, 21, 41, -12, -34, 52, 31, 11, -46, 3, -25, -22, -19, 26, 5, 1, 24, 30, 41, 23, -11, 38, -1, 40, 8, -4, -3, -10, 5, 37, 13, 30, 5, -37, -19, -23, 16, -11, -22, -3, 2, 18, 3, 55, 42, 27, 30, -36, 37, -4, -11, -14, 33, 13, 34, -17, 30, -34, 2, -7, -33, 47, -7, 5, -26, -17, 25, -26, -32, -11, 24, -12, -3, 9, -9, 1, -14, -18, 5, -14, 3, -10, 36, 22, -34, -8, -30, -11, -48, 4, 26, 26, 7, 42, 3, -39, 37, 21, -14, 41, 11, -13, 23, 21, -12, -13, 43, 28, -19, -7, 29, 43, 32, 21, 54, 18, 29, -17, 12, 28, 10, 9, 60, 14, 9, -5, 37, 5, 53, 10, 40, -4, -33, 18, 29, 14, -8, 18, -2, 15, 33, 4, -24, 46, 44, 25, 33, 10, 47, -31, 22, 45, 13, -6, -25, 15, 7, 2, 36, -36, -6, -8, 48, 11, 16, 46, 24, 50, 6, 8, 33, 7, 17, -9, 22, -5, -41, 41, 39, 37, -9, 9, 39, -4, 5, 31, 39, -18, -19, 42, 13, 20, 24, -34, -10, 43, 30, 1, -6, -18, 36, 3, -12, 2, 12, 30, 17, 45, 1, 33, -5, 41, 26, 6, -12, -8, 18, 52, -9, -18, -21, 12, 39, 45, 0, 0, 10, 5, -20, 23, 13, 37, 42, 39, -5, -12, -5, -29, -7, -26, 42, 22, 3, -8, 7, 48, 50, 54, -2, 13, 23, 11, 40, 48, -30, -10, -12, 34, 6, -9, -9, 18, 51, -35, 55, 22, -20, -12, 24, -32, 1, 17, -2, -3, -19, -28, 19, 3, 6, -8, -14, 9, 20, -5, 14, 23, 37, -12, 32, 16, -15, 44, -5, -15, 50, 0, -32, -27, 29, -46, -2, 32, 3, 7, -20, -15, 2, 24, 27, 39, 31, 2, -15, -7, 10, 38, -17, -5, -16, -10, -6, 28, 34, 54, -20, -18, 44, 38, -8, 18, -26, -1, 36, 30, 18, 22, 2, 44, 0, 27, 10, 50, 34, 41, -18, 22, 20, 25, 35, -14, 34, -40, 2, -23, 30, 29, -19, 23, 29, 10, -19, 12, 16, 25, -27, 12, 20, 30, -3, 6, 12, 3, -4, 2, -38, 20, 30, 3, 27, 13, -17, 43, 46, -34, 37, 2, 33, -10, -42, 30, -16, -24, 40, -4, -5, 13, -8, 31, -4, 8, 5, 24, 34, -21, -9, 14, 32, -37, 26, 3, 11, 8, 41, -4, -15, 8, 34, 27, 36, -17, 14, -36, 43, 9, -27, -18, 52, -31, -27, 43, -8, 11, -14, 18, 31, 7, 43, -25, 17, 4, -9, 17, 41, 25, 32, 51, 25, 57, -35, 25, 39, 26, 47, -6, -3, 2, 31, 36, -4, -31, 26, 6, 42, -8, 47, 34, 11, -2, -34, 20, 26, 19, -35, -24, 7, 47, 28, -34, 27, -2, 34, -41, 53, 42, 27, 23, -17, 47, -4, -12, 44, 26, 29, -19, 6, -34, 16, -41, -11, 15, -16, -17, 55, 11, -19, 34, 3, -28, 32, -2, -3, 28, 32, -50, -17, 34, 43, 39, 24, 34, -26, 42, 0, -36, 16, 32, 24, -11, -21, 34, 39, -9, 1, -3, 43, -18, -12, 22, 0, 5, 34, -17, -25, 36, 9, 55, -21, -8, -3, -24, -16, 17, 29, 40, 6, 15, -9, -19, 6, 15, -30, 11, -21, 42, -19, -23, -9, 29, 46, 41, 23, 4, 49, 12, 5, -40, -3, -16, -27, 37, -4, 52, 28, 12, -12, 36, 33, 4, 39, -26, 37, 44, -23, -2, -13, 12, -14, -18, -18, -3, -41, 1, -32, 2, 39, 25, 42, -9, -23, -16, -24, -6, 24, -9, -17, -30, 15, -17, -4, -27, 25, 51, -36, 25, -27, 14, 20, 21, -38, 28, -12, -13, -28, 14, 9, 44, 3, -2, 5, 39, 30, 44, -17, 26, 16, -11, 29, 45, 39, -27, -3, 44, -2, 14, -20, -31, 39, -17, 9, -9, 12, -1, -8, -1, 17, 11, 19, -14, 4, 2, -9, 47, 35, -22, -42, 3, 4, 10, -28, 37, -19, 4, -3, 11, -38, 29, -1, 49, -2, 32, -36, 42, 18, 34, -30, 14, -17, 13, -12, -18, 1, 13, -5, -17, -15, 8, 31, 48, 14, 15, 16, 7, -14, -15, -4, -17, -12, 30, 42, 51, 27, -1, -13, -13, 7, -3, -14, 44, 41, -33, -1, 14, 25, -17, -21, 42, 21, 55, 49, -4, 4, -20, 16, -3, -25, -16, 46, 17, 32, 31, -18, 24, 36, 25, 25, -4, 1, 3, 1, 23, -9, -33, 22, 17, 22, -3, -7, 34, 26, 36, -4, 14, 12, 18, 30, 2, -4, -2, 36, 17, 59, 14, 2, 5, 12, 23, -19, -14, 50, 3, 4, 35, 4, 39, 61, -30, 37, 46, -22, 9, 44, 46, 35, 37, 29, -9, 0, 4, 26, 16, -3, 39, 20, 11, 0, -23, -20, 0, 51, -38, 27, -13, 10, -9, 7, 6, 17, 17, 29, 32, -22, 12, 36, 17, 3, 23, 10, -10, -21, -7, -18, 50, -12, -20, 50, -7, -25, 36, 38, 10, 11, 43, -10, -18, -24, -1, 35, 10, -9, 20, 3, 45, 20, 38, 42, 10, 0, -25, -17, -1, 31, -27, 27, 4, 7, 18, 15, 48, 8, 41, 30, 12, 17, 18, -24, 22, 38, -13, 17, -19, 49, -9, 11, -14, -21, 49, 14, 36, 39, 41, 30, 19, -7, 40, -41, 11, -29, 58, 36, -13, 20, 9, -5, 25, -36, -25, 59, 17, -12, -18, -19, 43, -16, -14, 46, 31, 22, 32, -4, 27, 33, -20, 38, -9, -17, -23, -27, -20, 45, 8, 6, -8, -29, -16, -27, 47, 10, -23, -35, -36, 53, 35, 0, 1, 40, 47, 3, -22, 3, 49, 47, 46, 1, -10, -6, 6, 34, -14, -14, -30, -6, 3, -10, -20, 21, -2, 2, -6, -11, -17, 23, 37, 18, 36, 38, 13, 43, 18, -18, 25, -22, 18, -3, 46, 59, 40, -13, -20, -14, 20, -19, 24, -12, 5, 7, 33, -35, 37, 24, 15, 32, 4, 5, -6, 41, 51, -12, 38, 8, 25, -27, 14, 12, 10, 40, 22, 37, 43, 10, 57, -12, 13, -25, 51, 52, -38, -33, 17, -20, 31, 19, 6, 19, 42, 9, 26, 44, 24, -10, 16, 28, -45, -39, -44, -2, -2, 26, 48, -6, 0, -7, -25, 18, -3, -13, 55, 22, 32, -32, -34, -13, 30, 25, -1, 55, -20, -27, -21, 24, 24, -28, -20, 43, -4, 27, -23, -18, 45, -3, 4, 10, 8, -16, -19, 43, -6, 4, 57, -1, 7, -44, -49, 5, -19, 10, 0, -25, -31, 7, 22, 20, 36, 53, -27, 51, 37, -5, 10, -18, -30, 31, -32, 45, 12, -18, -18, 18, -19, 0, 20, 26, 2, -6, -13, -27, 2, -16, -7, -7, 8, -5, 28, 6, 28, 3, -32, 32, 10, 37, -17, 2, -11, -33, 0, -8, -26, -19, 6, 47, -9, -18, 49, 13, 58, 4, -33, -4, -20, -34, -23, -22, 37, 24, -38, -23, 19, -23, -9, -25, -32, 16, -15, 45, 39, 37, -1, 7, -5, -25, 3, -26, -35, 13, -17, 23, -27, -23, 32, 43, 9, 19, -8, 33, -16, 5, -3, 53, 27, 3, -11, -53, 22, -23, 11, 1, 11, -2, 20, 5, 4, -21, -32, 39, 15, 0, 13, 14, -18, 2, 48, 9, 43, 37, -9, 3, -18, 43, -5, -3, -23, -43, 31, -27, 22, 34, 13, 25, 9, -1, 5, 44, 7, 42, -40, -25, 46, 10, -10, -21, 15, 20, -2, 49, -20, -13, 51, -28, 48, 30, 8, 51, -23, 41, 21, 14, 5, 55, -9, -15, 6, 32, 13, 39, -33, -27, 1, -11, 14, -22, 30, 22, -16, -20, 6, 46, 35, 45, 47, -16, -17, -2, -2, 31, 10, 26, 6, -3, 15, 44, -4, 21, 42, 37, -17, -10, 5, 25, 28, 31, 32, 45, 31, -5, 20, 15, -33, -10, -11, -3, 38, -5, -2, 38, 11, 40, 32, 43, 14, -4, 20, 3, 10, 40, -21, -16, 35, 23, 43, -21, 20, -8, -2, 24, -24, -14, -4, 4, 46, -19, 49, 19, -54, 39, -15, 3, 54, 25, -35, -32, 36, -19, 13, 17, 13, -2, 22, 50, 28, 27, -10, -6, 0, 17, 11, -31, 30, 41, -10, -5, 0, 27, -6, -33, 49, 12, 62, -13, 16, -36, -32, -20, 37, 39, 48, -8, -13, 56, -29, 22, -13, 3, 39, -28, -12, 31, 19, -12, 28, -23, -22, -23, 30, -39, 29, -10, 22, -30, 55, 46, -9, 32, 1, 22, -19, -30, 39, -35, 56, 26, 41, 11, 47, -14, -7, -20, 1, -24, 18, 9, -15, -25, 0, -6, 10, 10, 2, 28, -29, -4, -24, -29, 42, 41, -9, -36, -32, 11, 44, -23, 0, 44, 9, -8, -7, 26, -11, 26, 24, -3, -27, 10, 22, 0, -21, -10, -2, -36, 34, 20, 34, 35, -16, 25, 34, -30, 10, 17, 16, 23, -18, 13, 24, 31, -12, 31, -23, -18, -11, 37, -24, -10, -17, 0, -17, 10, -13, 32, -29, -7, 36, 20, -48, -23, 35, -9, -10, 13, 42, 20, 6, 19, -10, 33, -13, -30, 21, 45, -2, -9, -18, -6, 41, -16, 49, -12, 29, 44, 40, 3, -8, 39, -28, 13, 24, 24, 13, -23, 30, 19, -45, 50, 42, -30, -28, 9, -29, 11, -7, -35, -18, 52, 27, -18, -10, 26, -55, -14, 1, 16, 32, -18, 3, 39, 16, 36, -18, 32, 14, 12, 25, -13, -32, 6, 17, -35, -11, -15, -33, -6, 3, -21, 7, -7, -26, -28, 27, 41, 35, 54, -17, -48, 22, 0, -7, 53, -12, -14, -35, 50, 12, -21, -54, -15, 6, 31, -52, 33, 18, -3, 28, -27, -5, -40, 26, -6, 21, 41, 5, -12, 16, 23, 30, 23, -25, 5, -32, 16, 32, -24, -35, 32, 28, 35, -31, -25, 31, 47, -29, 17, -17, 15, 24, -8, -25, 9, 20, 27, -19, 44, 46, -41, -19, 48, -18, 25, -16, -30, 1, -17, 41, 52, -9, -13, 53, 30, 6, 55, 32, -19, 17, 16, 19, 55, 23, 18, -30, -11, -6, 30, -18, -43, 20, -15, -38, -16, -13, 47, 9, -4, -11, -5, -18, 42, 24, 42, 3, 13, 30, 20, -32, 41, -28, 20, 42, 7, -11, -26, -12, -36, -41, -12, 1, -14, 41, 0, -49, 35, 27, 6, 6, 2, 44, 37, -33, -28, -36, 25, 33, -33, -7, 3, -33, -25, 26, -18, -17, 23, 34, -14, -29, 46, -19, 7, 34, -18, 21, -20, -13, 26, -34, -30, 48, 34, 17, 11, -3, 10, 30, 24, -9, -5, -18, -1, -7, -22, 1, -12, 30, 8, 51, -23, 3, 40, 3, 41, 46, 21, -17, 12, 5, 21, -7, -3, -17, -9, 3, 41, 7, -1, 29, 47, -38, 10, 23, 18, 3, 22, 27, 15, -26, 20, -9, 32, -6, -23, -8, 8, 31, 2, -27, 22, 17, 1, -10, 8, -9, -3, -20, -24, -2, -2, 1, 32, -22, -38, -29, -32, -32, 12, -4, 26, 30, 37, -6, -27, 35, 34, -43, 3, -5, -21, 32, 12, -45, 34, 16, -35, 7, 6, -12, -34, -44, 19, -13, 12, 52, -8, -21, -17, -30, 38, 19, -38, -22, 33, -8, 38, -35, 43, 49, -16, -3, 0, 13, 40, -7, 24, 3, -31, 23, 16, -15, -27, -33, 33, -1, 41, 34, 42, 42, 8, 20, -24, -12, 14, 4, -21, 28, -1, -19, 43, 1, -26, 16, -22, -2, 24, -6, 33, 1, 8, -30, 37, 14, 38, -3, -19, -9, -2, 26, -33, -1, -39, 12, -44, 23, 26, 31, -1, 3, -1, -13, 17, -37, -50, 24, 20, -4, -22, -11, 28, -12, 28, 13, -9, 33, 25, 18, 14, -43, 27, -21, 30, -38, -13, -5, -13, 23, 41, 4, 12, 24, -12, 26, -7, -31, -19, 20, 52, -9, -30, 1, -34, 6, 10, -11, 20, 6, -8, 29, 14, -31, 2, 6, 6, 37, -25, -13, 6, -27, 1, -5, 22, -13, -15, 4, -5, 30, 13, -20, -3, -14, 40, 41, 27, 4, 44, -24, 31, 18, -4, 43, 29, 31, 47, 4, 47, -5, 7, 32, 34, -11, 25, -41, 34, 4, 38, -15, 34, 1, 35, -16, -3, 1, 15, 33, 40, 46, -16, 34, 23, 17, 39, -28, 33, 9, 18, -39, 44, 5, 4, 5, 1, 23, 31, -13, -10, -33, -48, 13, 51, -12, -20, 21, 21, 20, -22, 1, 30, 0, 10, 9, 0, -18, 25, 36, 37, -12, 39, 29, 45, 41, 42, -3, 52, -19, 5, -12, 44, 7, 42, 14, -13, -29, 40, -23, -47, -22, 6, 43, 49, 20, -12, -28, 44, 10, 22, 24, 24, -17, 8, -32, 6, -29, 47, 35, 26, 9, 37, 29, -12, -17, -12, 33, 42, 9, 50, -31, 31, -27, -4, 44, 24, 4, 31, -18, -26, 25, 28, 38, 12, 19, 29, -27, 40, 14, -10, 6, -23, -19, 46, -22, 32, -52, 20, 41, -23, 42, 49, 16, 1, 19, 2, 5, 7, 46, -23, 12, 7, 25, 42, 43, 8, 24, -39, 13, -29, -16, 0, -9, -13, -18, 27, 48, 64, 42, 15, -3, -12, 46, -41, 11, 30, -21, 47, 43, -26, 52, -30, -17, -34, 37, 53, 22, 36, 38, 20, 11, 23, 32, 40, 31, -27, 12, -3, 12, -1, 18, 6, -11, -18, -22, -11, 42, -11, 12, -31, 23, -19, -53, 33, 4, -27, -26, -15, -6, -14, 9, -8, -6, 9, -43, -7, 3, -37, -4, 22, 49, 18, 12, -1, -22, 25, 4, 1, -12, 9, 3, -20, 21, -33, 4, 5, -41, 26, -6, 51, 5, 16, 37, -14, 17, -20, 1, -1, -3, 15, -15, 33, -16, 7, -37, 1, 5, -42, 17, 18, -8, 15, 28, 24, 10, -6, 14, -16, -22, -19, 31, 33, -21, -16, 30, -14, 17, 46, 10, 51, 13, 43, 38, 37, 25, 12, 1, 31, 10, -28, 33, 14, -46, 2, 35, -25, 9, 43, 24, 13, 19, -24, 33, -20, 31, 23, -21, 15, 38, 6, -26, 4, 18, 11, 29, 12, -9, -20, -21, 38, 9, 33, 25, -37, -8, -5, -29, -12, -28, 51, 38, -35, 27, -31, 30, -20, 3, 25, -6, 14, 14, 21, 25, 1, -10, -36, 28, 12, -26, -12, 46, 50, -48, -17, 48, 8, 10, 35, -30, 29, 28, 6, 21, -32, 16, 12, -15, -13, -1, 11, -50, -10, 6, 12, 27, -10, 12, 14, -33, -48, -21, -2, -7, 7, -25, 35, -12, 17, 27, 23, -29, -11, -20, -15, 17, -18, -29, 19, 46, 12, -21, 36, 4, 36, -30, 2, 21, 11, -32, -2, 18, 34, 20, -35, -36, 27, -22, 21, 28, -9, 25, -25, 12, 8, 20, -22, -34, 11, -26, -24, 10, -22, -20, 6, -34, -6, 8, 34, 9, 8, 42, -40, -10, -16, 11, 30, -36, 24, -7, -9, -12, 1, 45, -42, -8, 29, 5, 41, -10, -4, -10, 26, -26, 17, -15, 34, -11, 13, -14, -41, 12, 1, 12, 4, -36, -27, -30, -17, 47, -32, 32, 28, 46, 0, -18, -16, -16, -31, -32, -42, 7, 20, 33, -4, -10, 3, -45, 9, -19, 17, 6, 22, -37, 12, 2, 18, -45, 39, 21, 24, 11, -8, -9, -29, 33, -24, -14, 7, 4, 0, -13, 52, -20, 2, 13, 38, -1, -28, -29, 12, -6, 0, -1, -7, 8, -33, -36, 48, 10, -22, -17, -7, 4, 41, -35, -36, 6, -33, -25, -33, 8, -13, 25, -27, 16, -46, -40, 27, -3, 9, 28, 2, 10, -41, 24, -11, -24, -14, 2, -17, 50, 37, -30, 19, -34, 24, 28, -6, -14, 26, -9, -41, -20, 18, 44, 32, 7, 34, -58, 39, -26, 30, 23, 1, -42, -12, -32, 2, -8, 23, 2, 14, -10, 7, -47, -50, -17, 47, -44, 37, -18, -47, 14, -33, -12, -23, 7, 22, -3, -10, -48, 27, 21, -26, 7, -32, 13, -1, 3, 0, -2, -4, 7, 22, 27, -12, 10, 28, 20, 48, 26, 21, 41, -18, 2, -26, -44, -39, 10, -37, -19, 1, -44, -40, 40, 21, 31, -29, -40, 17, -23, 34, 15, -37, -33, 35, -33, -36, 15, -34, 18, 20, -31, 22, 16, -25, -2, -7, -11, -22, -25, -5, 13, 29, 1, 30, 26, 11, -15, 2, 21, -7, -18, -38, -41, -17, -35, -46, 23, -3, 5, -16, -13, 40, -30, -4, -39, 38, -13, 25, -11, -25, -47, 25, 11, -15, -45, -23, -32, 18, 5, 5, 28, 6, 5, 39, 28, 36, 3, 17, 17, 4, 43, -12, 35, 6, -19, -48, 20, 17, 31, 38, -48, -32, 15, -5, 26, -13, 7, -37, 44, -22, -23, -7, -14, -2, 1, -32, 10, 2, -8, -21, -37, -12, -3, 41, -30, 30, -43, -18, 36, -32, 14, -2, 28, -13, 7, 2, -22, -40, -35, 20, -57, 8, 18, 35, 38, -8, 13, -24, 50, -17, -22, -26, 15, 27, 17, -38, 29, -8, -28, -33, 26, -2, 21, -43, -1, 22, -21, -27, -53, 20, 23, -47, -39, -25, -23, -39, 2, -8, -24, 6, -38, 12, 44, -14, 35, 7, -16, -29, 22, 0, 0, -22, -23, 10, -45, -28, -34, -14, -13, 23, -38, 38, -18, -25, -51, 0, -48, -17, 51, -3, 22, 18, -19, -43, -27, 31, -33, -24, 19, 44, -1, 21, -21, -21, 4, 21, 28, 7, 27, -26, -16, 28, 46, -34, 6, 34, 16, 26, -11, -32, -39, 34, 26, -34, -14, -31, -12, -7, 36, 45, -34, -42, -7, 9, -21, 12, 20, -18, -11, -11, -14, -1, -5, -28, -21, -9, 8, -32, -9, -35, 33, 29, 16, -2, 29, 4, -25, -10, -1, 40, -37, -26, 36, 0, 30, 1, -37, 24, 32, -36, 25, 7, 8, 2, 47, 20, 9, 14, -13, -27, 34, 26, 49, 10, 15, -20, -48, 32, 37, 42, 25, -23, -35, -31, -25, 17, -10, -1, 17, -13, -16, -31, 8, -31, 2, -22, 22, 30, 47, 8, -10, -5, -3, 24, 46, -33, -32, 10, 7, 44, 34, 27, 30, 2, -24, -44, 24, -30, -12, 24, -15, -36, 20, -43, 13, -8, 19, 11, -35, -16, 16, -48, 26, 5, 20, 0, -34, -30, 17, 32, 30, 42, 0, -20, 29, -13, 1, 30, -31, -20, 17, -10, 29, -32, -21, -28, 3, -28, -11, -26, 16, 21, -23, 27, 14, -16, 6, 2, 36, -8, 20, -44, 23, -13, -26, 38, 21, 31, -45, 26, 6, 13, 52, 10, 5, -40, -39, 16, -20, 6, 23, 39, -20, -2, -34, 21, 29, -34, -33, -38, 7, 13, -16, 11, -38, 47, 4, -2, -15, -23, -36, 0, 38, -10, -30, -16, -24, 1, 40, 20, 11, -18, -5, 49, -27, 24, 21, -23, 13, -29, -12, 38, -11, 23, -27, 28, -14, -34, 31, -22, 25, 17, -45, -1, 22, -5, 26, 28, 27, 3, 26, 21, 10, -22, 25, -9, 27, 23, 41, -31, 8, 38, -19, -27, 38, 15, 6, 6, -22, 35, 13, 39, 5, 11, -8, -6, 42, 16, -9, -1, -43, 19, -2, -22, -44, -21, -9, 26, -24, -15, 15, -22, -2, -19, -2, 9, 2, 13, -38, 30, -5, 7, -20, -4, 24, -51, 36, -13, -21, 4, 15, -47, -46, 12, 15, -33, -19, -13, -16, -12, -5, 8, -10, 6, -20, 29, -23, 35, 8, 14, 3, -13, -5, 19, -17, -14, -6, 18, 16, 34, 0, -13, -40, 9, 46, 10, 17, -2, -45, -8, 27, 34, -28, -28, -34, 12, -11, -26, -48, -35, -17, 49, 12, -30, -5, 37, -12, 0, 14, 32, -15, -52, 50, 14, -10, 9, -36, 19, -11, -8, 39, -35, 13, -35, 21, -19, 36, 28, 20, 27, -58, 9, 17, -18, 21, 8, -50, -33, 2, 3, 2, 7, 44, -28, -11, 26, -17, 20, 23, 18, -33, -41, -47, 20, 29, 17, 32, 32, -50, -39, 1, -12, 22, 11, -23, 48, 19, -27, 8, -13, -4, -3, 12, -52, 31, 3, -46, 7, -43, -14, 10, -3, -12, -30, 21, 20, -2, 7, -13, 27, -33, 28, 36, -14, 7, 30, -21, -10, 7, -13, 12, 43, -3, -14, 41, 5, -30, 15, 5, -32, 16, 19, -12, -35, 32, -40, -33, -15, -11, -24, -23, 37, -38, -23, -30, 43, -11, -23, -26, -13, 35, -31, -45, -28, 30, 9, -40, -18, -38, -48, 2, -9, 31, 42, -52, 2, -25, -2, -30, 16, -12, 28, 1, -2, 14, 24, 20, -3, -32, 42, -41, 26, -21, -22, -5, 17, -19, -50, 15, 4, 0, -11, 3, -15, 18, -54, 32, -2, 35, -16, -38, -1, -42, -20, 37, 32, -44, 16, -14, -9, 31, 3, -2, 20, 15, -9, -1, -33, -14, 35, -33, 14, 7, 24, -1, 29, 21, -17, -7, -32, -30, 13, -30, 26, -20, -38, 1, -14, 17, 41, -7, 55, -13, 44, 28, -26, -29, -7, 18, -1, 7, 15, 42, 34, -30, -33, -20, -24, -30, 27, 35, -36, 36, 24, 0, 30, 34, 5, -10, 38, 29, -31, 13, 20, 13, 26, 21, 2, 8, 9, 4, 14, -43, 23, -40, -40, -49, -3, -15, -20, 8, 2, 14, -23, -12, 26, -18, -20, 44, 28, -40, -42, 16, 2, -31, -39, 9, -32, 20, -3, -33, -4, -5, 14, -43, -45, 11, 31, 25, -42, 24, -11, -26, -15, 31, -17, -41, 34, -20, 51, -29, -20, -38, 39, 36, 18, -18, 18, 44, 10, 31, -32, 19, 0, -25, 40, 9, -10, -30, 9, 19, 3, 6, 4, -20, -33, 6, -3, -41, 35, -23, 33, 30, -46, -23, -7, -33, -59, 22, -23, 7, 27, 17, 25, -51, -17, 47, 6, 27, 17, 43, -10, 37, 19, -20, 12, 10, 9, -9, 2, -20, 23, -20, 12, -8, 27, 37, 33, 28, 0, 37, 31, -22, -22, 20, 51, -28, -9, 11, -4, 28, -5, -13, -13, 26, -6, -32, -31, 7, 33, 9, -36, 41, -40, 28, -47, -21, -10, -36, 23, -22, -14, 31, 11, -26, 12, -3, -20, 16, 43, -6, -8, 41, 7, -6, 9, 14, 4, 20, -30, 33, 13, -10, 23, 13, -47, 1, -3, -13, -10, 9, -33, 23, -9, 4, 8, 12, 33, 21, -48, 16, 44, -28, 22, -36, -45, 18, -14, -42, -28, -27, -4, 39, 20, -30, -32, 7, 26, 27, -31, -14, 24, 20, 36, 21, -50, 28, 37, -38, 19, -20, 30, 23, 39, 21, 14, 21, 14, -20, 15, 42, -1, 37, 39, 16, 5, 19, 23, 35, 11, -20, -14, 6, 35, 10, -33, 52, -27, 13, -4, -1, 40, 24, -13, 12, 19, -6, 37, 17, 10, -8, -7, 3, 32, -25, 16, -11, 4, 14, 18, -37, -12, 7, -8, 2, 38, 27, 15, 20, -24, 39, -9, -25, 33, -7, 2, 28, -17, -6, 19, 14, -19, 0, -23, 29, 3, 40, -10, 20, 54, 38, -15, -20, -37, -7, -3, 19, 2, 54, 13, 16, 26, -48, -10, -28, 2, -23, 38, 34, -1, -23, -20, -1, -17, -24, -27, 52, -20, 13, -11, 14, -41, -9, -53, -13, -26, 6, 28, -14, 45, -23, 35, 41, -11, -20, 1, -1, 46, 54, 32, -16, 17, -7, -13, 27, 22, -11, -20, 31, 15, -9, 46, 29, 19, 23, 3, 43, -43, 16, 21, 11, -6, 38, -7, -22, 12, -37, -22, 16, 17, 11, 25, -7, -5, -7, 39, -42, 57, 18, -36, -9, 35, 7, -17, 16, 44, 7, 29, -38, -47, 14, 49, 38, 44, 12, -30, 1, -18, -4, -26, -20, 22, 27, 2, 17, 40, 8, 50, -7, -12, -14, 52, 47, -4, -19, -28, -9, 65, -9, 30, 11, 6, 56, 55, 11, 28, 55, -9, 54, 25, 29, 1, -10, 36, -17, -5, 13, -4, 56, 4, 62, -9, 36, 38, -13, 43, 41, 24, 13, 54, 4, -17, -21, 29, 23, 25, -5, 33, 21, -21, -4, 62, 55, -17, -4, 3, 52, -9, 24, 5, 46, 57, 16, 50, -26, 39, 35, 9, 2, -4, 34, -21, 24, 9, 5, -20, 30, 47, -15, 27, -10, -6, 45, 3, -20, 32, 2, 29, 30, 33, -15, 15, 10, -1, -1, 52, 6, 21, 6, 1, 9, -10, 49, 8, 17, 23, 9, -13, 1, 40, 23, 15, -33, 30, -7, -19, 6, 61, 21, -3, 55, 2, 43, 27, 43, -3, 48, -3, -17, -22, 32, 6, 53, 48, -2, 39, 3, 5, -26, -17, 42, 30, 10, 42, 12, 39, -18, 26, 48, 26, -6, -11, 23, -31, 20, -23, 26, -14, 50, 4, -5, -25, 42, 4, 53, 40, 1, 41, 41, 48, 3, 33, 52, 2, 14, 36, -4, -8, 13, -18, 2, 17, 10, -5, 24, 17, 3, 37, 3, -16, 20, -5, -17, 41, -46, -27, 48, -4, -17, 20, -6, -22, 21, -15, -26, 5, -11, 46, -13, 10, 1, 45, 34, 0, 37, 28, 34, 30, 35, 43, 2, 27, -11, 36, 47, 30, 26, -13, 46, 11, 10, -15, 15, -16, 29, -7, -4, 4, 35, -2, 30, -10, 1, -12, 1, 46, -35, 36, 56, -8, 29, 47, -13, -17, 55, 35, 54, -37, 45, 56, -15, -25, -21, 8, 22, 24, 3, 55, -2, -22, 27, -10, -26, 31, -20, 29, -8, 18, -35, 32, -20, 39, 4, -11, -2, 44, -5, -10, -15, -3, 44, 13, -14, 46, -34, 11, 56, 3, -1, 22, 10, -12, 8, 25, -29, 6, 49, -24, 31, -30, -10, 4, 42, -38, -8, 60, -14, 0, -40, 53, 45, 7, 26, 48, 12, 40, 27, 50, -4, -20, -12, 42, 36, 52, 39, -12, 10, 18, 36, 6, -20, 24, 34, 48, 17, 18, -27, 7, -30, 4, -7, -18, 45, 49, -18, -45, 6, 7, 5, 47, 27, -15, -18, -4, -9, 38, -25, 33, 13, -19, -21, 42, 34, 10, 10, -9, 45, 6, 27, -22, -32, -5, -31, -5, -8, 10, -2, 22, -33, 33, -17, 21, 17, -38, -33, 44, 29, 51, -13, 28, 23, 47, -17, 21, 58, 8, -1, -5, 41, -6, -27, -15, 52, -16, 34, 28, 11, 4, 14, -5, 3, 13, -9, 44, 36, 32, -4, -27, 3, 10, 33, 18, 12, 10, -20, 22, 16, 48, 19, 16, -4, -17, -21, 16, 8, 37, -21, 47, -40, 38, 44, 50, 35, 10, 54, -14, 55, 2, 4, 43, -1, 32, 23, 13, -28, 35, -5, 28, 13, 0, 30, 14, 49, 22, 22, 28, 33, 49, -26, -27, -1, 0, -32, -12, -26, 21, 57, 51, -35, 18, 40, 39, 35, 41, 56, -18, -18, 17, 7, 28, -2, -5, 27, 45, 46, 38, 2, -39, -42, -31, -14, -27, 31, -13, -38, 10, 38, -21, -46, -10, 50, 38, 23, 7, -53, 11, -5, 5, 13, 3, 24, 39, 26, 19, 46, 2, -15, 55, 34, -25, -16, -8, 42, -27, 32, 21, 23, -13, -6, -29, 25, -4, -32, -1, 48, 1, 4, 7, 38, 1, 3, -12, 39, 12, 16, -31, -4, 38, -46, 35, 50, 2, 29, -12, -39, -25, 34, 53, 23, 26, 5, 13, 12, -28, -14, 49, 48, 54, 9, 37, 7, 5, 22, 12, 2, -14, -30, -19, -3, 37, 43, -1, 2, 56, 31, 33, -14, 41, 27, 31, -11, 4, -12, 56, 17, -13, 38, 11, 41, 27, 1, 8, 30, -18, -12, 16, 31, 15, -8, -20, 25, 57, 1, 9, 23, -8, 50, -9, -18, 50, 29, -5, 39, 12, -9, 38, 8, 33, 36, -12, 41, 37, 51, -9, 38, 18, -36, -19, -13, -25, 10, 25, -9, 48, -22, 9, -15, 9, -25, -13, 47, -4, -29, 20, 8, 57, 22, -7, 18, 29, 28, 9, 34, -12, 38, -2, 18, 16, -29, -23, 41, -3, 30, 39, 25, 24, -33, 3, 22, 28, -14, -5, -14, 2, 40, 42, 12, 9, 22, 25, -3, -7, -18, -24, 47, -11, 1, -19, 9, -36, 24, 34, -20, -24, 46, -26, -2, 25, 43, -31, 47, 55, -15, 28, 26, 17, 35, 44, 27, -23, 6, 41, 27, -7, 52, 3, 30, 15, -22, -22, 19, -28, 12, 40, 2, 13, 32, -39, 17, -21, 43, 42, 49, -7, 44, 44, 17, 1, 7, -12, 49, 8, -28, -13, -8, 28, -22, -27, -5, 16, 23, -25, -29, 24, -22, 12, -38, -21, -36, -38, -17, -11, -1, 30, 28, 6, -20, 5, -26, -1, 34, 2, 4, 16, 18, -47, 22, 31, 35, 35, 17, 11, -21, -5, 39, 7, 4, 2, 39, -9, 18, 26, -8, -13, 14, 46, -10, 41, 26, 34, -7, 13, 44, -1, 16, -2, 22, -17, 10, -2, 19, -27, -2, 8, 9, 46, 20, -24, 7, -19, 3, 28, 9, 3, 25, -22, 29, 36, 19, 4, 24, 18, 38, 4, -13, 28, 11, 29, -2, 24, -40, 5, 19, -15, 47, 55, 26, -7, 39, 41, 35, -18, -23, 43, 37, 16, 13, 32, 9, -21, 34, 19, -35, 33, -31, 19, 8, 10, 12, 50, -4, 46, 18, 9, -34, -21, -3, -3, 0, 0, -19, -9, -27, 51, 47, 35, -15, 33, 4, 42, -18, -11, -30, 35, 13, 2, -20, 20, -14, 12, -12, 27, 47, 19, -21, 20, 10, -11, -21, -51, 53, -11, 43, 37, 12, 6, 6, 7, 35, -7, 41, -11, -10, 21, 11, -28, -9, -18, -18, 33, -13, -6, -26, 38, 0, -1, 40, 14, -5, 30, -28, 37, 55, -14, 28, 10, -17, 21, -25, 40, 30, 45, 65, 34, 36, 33, 40, -15, 53, 52, 61, 53, 19, 50, -1, -10, 46, 9, 27, 2, 34, -19, -29, 45, -11, -19, 34, 34, 9, 3, 30, 18, -4, 8, -3, 61, 22, -24, -26, 16, 23, -4, 34, 16, 28, 22, -7, -6, 5, -3, 3, 2, -8, 47, 5, 37, -36, 4, 57, 15, 8, 31, -10, 1, 40, -26, 25, -6, 21, -34, 54, 43, -27, 51, 44, -17, 15, 29, 12, -23, -1, 28, 4, 27, -12, 23, 25, -3, -2, -32, 9, -12, 29, -8, 15, -21, 35, 56, 4, 15, 7, -6, -31, 15, -31, -13, 61, 40, 48, -27, 24, 24, 47, 31, 23, 45, 5, 47, -24, -20, -23, 40, 11, 1, 21, 25, 2, 18, 29, 9, 7, 14, -14, 5, -8, 22, -25, -11, 37, 55, 3, 54, -20, 6, 34, 26, -8, -5, 46, -10, -7, -7}

#define TENSOR_LSTM_LSTM_CELL_KERNEL_0_DEC_BITS {8}

#define TENSOR_LSTM_LSTM_CELL_RECURRENT_KERNEL_0 {-33, 0, -23, -12, 8, 4, -32, -5, -22, -45, -15, 10, -7, -1, -21, -11, -5, 15, -4, 32, -12, -30, -8, -14, 42, -17, -8, 6, 10, -46, 10, -24, -20, -49, 2, 5, -16, 17, -22, -15, 47, 7, 14, 21, -1, 26, 37, -21, 35, 15, 28, -8, 32, -7, 33, 5, -29, 11, 2, 39, -23, -4, 15, -28, 21, 48, -1, 4, 8, -27, 9, -11, -23, -11, -24, -19, 0, 3, -39, 36, -3, -9, 16, 26, -17, -7, 15, 34, 14, 4, -1, -19, -1, 16, 5, -19, -2, 32, -3, -12, -14, -2, -8, 16, -4, 50, -35, -7, -12, -28, -25, -8, 22, -25, 18, 57, -1, 13, 16, -12, -12, -36, -6, 13, -23, -24, 1, 36, 35, 2, -35, -19, -7, -24, 12, 48, 24, -14, -1, -18, -24, 27, 6, 8, -23, -31, -10, -44, -22, 1, -17, 29, -12, -23, 10, -27, -11, -22, -11, -12, 0, -24, 9, 38, -5, 7, 14, -5, -24, -13, 12, 30, -39, 36, 46, 6, -19, 4, 18, 35, 16, -38, 8, 20, -9, -21, -31, -24, -14, -25, -12, -43, -18, -41, 22, -45, -3, 0, -15, -23, 20, -3, 1, -22, -14, -7, -26, -32, -5, 16, -29, 7, 24, -4, -24, 14, 5, 14, -53, -16, -22, 1, 13, 4, 0, -4, 8, -11, 16, -13, 15, 26, -4, -6, -26, -13, -7, 10, -12, -5, 6, -11, 0, -18, -30, -24, -8, -42, 5, 36, -10, -8, 5, -20, 31, -19, -27, 21, -35, 1, 59, 45, -41, -25, 5, -32, 6, -11, -10, -21, -23, -47, -22, 3, 24, -12, 29, 12, -14, -43, 28, 0, 7, 10, -29, -7, -17, 4, -29, -4, -19, 39, -18, 38, 15, 6, 8, 15, -7, -31, -8, 17, -17, 29, 21, 4, -17, 9, 41, -31, 3, -28, -8, -17, 4, 9, -11, 2, 2, 12, 15, 8, -6, -8, -14, -14, -42, -25, -27, 1, 2, 7, -20, 30, 25, -5, 13, 11, -20, -3, 6, 8, 17, 19, 12, 0, 7, -10, 34, -23, -13, -56, 29, -3, -5, -32, -33, 11, 7, 11, -3, -25, -31, -32, -44, -43, -14, -3, -23, -41, 31, 13, -15, 16, 29, -9, 6, -50, -14, 41, -24, 7, 51, 14, -16, -36, 3, -13, -5, -12, 23, 49, -30, -24, -30, -24, -44, -5, -36, 7, -26, -46, -6, 8, -19, -15, -25, -39, 5, -10, 26, -7, -31, -4, -4, -2, 35, 6, -1, -1, -6, -22, 14, 2, -18, -19, -3, -17, -31, -47, 41, -3, 22, 22, -20, 52, 8, -31, 23, -9, 0, -35, 30, -19, 13, 8, 12, -26, -17, -34, -21, -1, -9, 20, -10, 5, 5, 25, 5, -24, -8, -4, 16, -15, 0, 23, 6, 1, 18, -11, -7, 0, 10, -2, -16, -28, 28, -3, 16, -1, -19, 18, -26, -10, -12, -29, 16, -36, 2, -23, 1, -7, 34, -6, 26, -22, 47, -6, 5, -19, -28, -12, 17, -16, 29, 21, 8, -1, -12, 5, 6, 14, 20, 13, -40, -32, 22, 29, 10, -1, -5, 9, -17, -14, -13, -15, -19, -39, -30, 5, 31, -6, 22, -16, 28, 1, 17, -38, 20, 0, 9, 9, 9, -5, -16, -19, 19, 19, -2, -17, 25, 5, 11, 25, -7, -7, -7, -17, 9, 2, -16, -21, 8, -34, 34, -34, 6, 2, -18, 5, -35, -3, -28, -44, -5, -41, -11, -19, 13, 12, -6, 0, -8, 18, 18, 18, -22, 38, -16, 7, 22, 21, 19, -2, 10, 13, -9, -26, -7, 15, -20, -16, 12, -10, 51, 0, -24, 2, -35, -51, 5, -10, -10, 36, 0, -25, 20, -11, -4, -34, -7, -1, -20, -12, 41, -4, -7, 1, -13, 7, -20, -19, -15, 15, -35, -31, 14, -14, 41, -14, -1, 2, 14, 45, -7, 9, -8, 6, 25, -13, 1, 19, -19, -17, -28, -36, -30, -17, -38, -3, 14, -39, -40, 6, 9, 25, -1, 24, -6, -17, -11, -3, 15, -7, -1, -29, -10, 39, -16, -27, -3, -12, -17, 9, 11, -17, -32, -56, 38, 21, 12, -2, -36, -10, -19, -42, -18, -19, -60, 0, -30, -37, 4, 5, -28, -25, -4, -28, -12, 20, 21, 18, -32, 4, 9, -28, -12, 20, 2, -83, -10, 29, -24, 12, 35, -17, -9, -11, 18, -2, -29, -2, -34, 6, 18, -7, -12, -19, 0, 0, 7, -10, 2, -19, -19, -26, -46, 0, 39, -24, 28, 32, -8, -5, -13, 7, -5, -39, 1, 9, 0, -22, 12, -16, 20, 29, -10, -11, -33, -4, -3, -15, 26, -18, 13, -5, 20, -34, -11, -28, -5, 4, -9, -14, -12, -42, 63, 28, -2, -6, -10, 30, -10, -27, 30, -21, 11, 7, 3, 31, 6, 41, -4, 25, -8, 12, 7, 29, -31, 3, 7, -5, 18, -12, 21, -30, 7, -16, 42, 12, 7, -5, -39, 11, 17, 41, -59, -5, -32, -41, -20, -30, -2, -13, -12, -34, -28, -26, 5, -1, -26, -15, -13, -31, -21, -26, -20, -1, -25, 2, 8, -6, -23, 25, 3, 14, 0, -20, 27, -10, -26, 14, -10, 3, -4, 8, 1, -1, -8, 30, -21, -20, 39, 28, 28, 6, -21, 22, 27, -32, 2, 13, 22, -37, 11, -24, 7, -12, -8, 4, 9, -13, -10, 10, -21, 0, 6, 15, 7, -23, -2, -24, -34, -28, 3, -31, -9, -21, -5, -2, 17, -5, -26, -2, 59, 29, -20, 9, -24, 17, -11, 31, 0, -19, -14, 36, 16, -29, 15, 20, -57, -42, -1, 12, 7, 9, -5, 13, -31, -1, 3, -18, -36, 2, -25, -33, 20, -45, 8, -30, -9, -13, -40, -30, -13, -22, -27, -7, 20, 18, -22, 6, 39, 13, 15, -45, 3, 36, -38, -1, 11, -6, 8, 27, 12, 4, -34, 2, -12, -8, -33, 11, 2, 21, 3, -28, -58, -22, -4, 14, -58, 3, -14, -24, 29, 29, -35, -14, 24, 6, -11, -36, -14, 20, 13, 15, 6, 9, -25, 2, 9, -22, -28, -1, -19, -8, -9, -9, -19, -54, 21, -11, -36, -25, 41, 17, -22, -21, 24, 15, -30, 8, -3, -16, -28, -31, -28, 31, -12, -8, -22, -16, 7, -6, -14, -17, 1, 0, -51, -37, -46, 16, -10, 5, -17, 3, 22, -10, -5, -3, -29, -13, 36, -1, -26, -30, 10, 7, -22, 2, -6, 26, -43, -6, -9, -32, -12, -32, 36, 1, -31, 36, -11, -1, 35, 0, -14, 11, 11, 8, 15, -23, 36, -26, -4, -50, -31, 17, 13, -33, -13, 20, 9, -11, 7, 7, 26, -2, -16, 36, 3, 5, -25, 4, 3, 14, -16, 23, 29, 11, -9, 5, -20, 24, -25, -18, -4, 39, -19, 22, -20, 0, 11, 13, -15, -17, 1, 6, -20, 5, 20, -17, -3, -39, 20, -17, 11, -14, -7, -21, -11, -9, -24, -46, 35, -9, -4, -15, 7, 39, -38, -28, -16, 7, -11, -27, -8, -33, 19, 0, 3, 19, 32, 5, 10, -7, 11, 34, -37, -6, 16, 29, -11, 40, -32, 3, -12, -27, -10, -10, 5, -24, -29, -8, -2, 2, -13, 12, -22, -21, -2, -19, -3, -24, -22, -34, 20, 18, -9, 21, 10, 16, 35, 3, 55, 46, 12, -21, -7, 13, -29, 11, 2, -27, -14, 28, -27, -10, -27, 15, -31, -49, 6, -9, -29, -3, -6, -2, 21, 2, -28, -31, 3, -6, -17, 10, -6, -44, 22, -9, 16, 28, -12, -21, -11, 3, -35, -1, 25, 15, 14, 1, -5, -19, 38, -26, -14, 0, -22, -11, -9, 32, -25, 28, 11, -1, -9, -51, -26, 20, -19, 1, -45, 10, 5, -21, 31, -11, 37, -2, -12, 41, -7, 31, -10, -2, -39, -23, -9, 15, -14, 34, -6, 16, -19, -31, -7, -13, 24, -8, 6, 7, 10, -7, -24, 3, -11, -14, 13, -31, -11, -15, 25, -1, -14, 13, -4, 18, -1, -1, 9, 22, -26, -5, 10, 20, -29, -8, -9, 37, 19, 8, 7, -3, 17, 23, -9, -20, 18, -2, 20, 12, -50, 8, 0, -24, 1, -28, -44, 4, 12, -2, -17, -47, -16, 17, 1, -30, -14, -3, 18, 18, -6, 6, 34, 13, 5, -8, -6, 3, 2, -8, 29, -7, -2, 11, -7, -30, 6, 7, -15, 12, 17, -6, -4, -3, 7, -4, -4, 5, -13, -35, -51, -48, -9, 14, 22, -16, -4, -22, 48, -11, -16, 12, -14, -15, 27, 31, 37, -5, 59, 30, 8, -37, 10, -2, 8, -1, -13, 11, -2, 32, -34, -7, -27, -2, -1, -51, 11, -14, -24, -9, 14, -15, -12, -7, -8, -31, 6, 3, -32, 3, 0, 26, -4, -11, 26, 1, -4, 16, 13, 20, -6, 2, -12, 17, 26, 11, -24, -16, -7, -3, -20, -70, 20, 44, 9, -26, -2, 14, -4, -39, 5, -17, 18, -33, 20, -14, 21, 0, 7, -22, 9, -33, 47, -25, 12, 3, -13, -12, -15, 28, 53, 2, 11, -33, -10, 13, 16, 5, -8, -13, -5, -16, -15, 2, -4, -22, 0, -64, 31, -47, -4, -17, 28, -3, -24, -30, -16, -15, 27, 12, -29, 19, 34, -21, -25, -15, 33, 18, -22, -18, 9, -2, 19, 26, 16, -9, 25, 3, 6, -32, -5, 31, -18, -3, -19, -7, -43, 33, 13, -33, 8, -6, 19, -8, -33, 15, -41, -8, 4, -10, -16, -21, 16, -44, -49, 17, 45, 25, -12, -38, -52, 8, 18, -20, 24, 27, -18, 1, 18, 0, 2, 18, 23, -44, 3, -41, 25, -11, -26, 30, 8, 15, 14, -19, -19, -53, -25, -22, -8, -28, -19, -26, -23, 4, 1, 0, -17, 41, -38, -8, -4, 5, 5, 17, -18, 4, -12, 12, 10, 12, -26, 29, 28, 15, -19, 14, -6, -21, -29, 0, -12, -31, -13, -11, -28, -10, 4, 39, -8, -18, -20, -43, 7, 8, -5, 5, -4, 8, -32, -19, -24, -12, 2, 20, -36, 21, -10, 45, 0, 16, -20, -3, 1, 11, -14, -15, 18, 25, -2, -27, 22, -4, -29, -8, 34, 3, -37, -16, 11, -19, -46, 14, -34, -26, 28, -19, -37, -33, 24, 4, -11, -23, 11, 13, 33, -21, 11, 14, 26, 12, -7, 10, 23, 1, 32, -13, -2, 31, 7, -5, 3, 2, -38, 27, -20, 18, -54, -23, -21, 5, 6, -4, -11, -19, -6, -10, 18, 33, 12, -4, -22, 25, 13, 5, 76, 57, -13, 36, 19, 13, -9, -3, -4, 1, -2, 10, -37, -23, -26, 6, -7, -29, 0, 10, -34, -38, 9, 27, -14, -54, -37, -29, -58, 2, 13, -22, -13, 2, -11, -38, 8, -12, -6, -36, 16, 16, -44, 10, 7, 12, 20, -30, 7, 8, -13, -21, 15, 12, 16, 2, -13, 4, 11, 9, -46, 25, 39, -16, -34, -1, 34, 8, 8, -20, -27, -21, -41, -7, -25, -9, -9, -5, 17, -42, -5, 14, 6, 7, 42, -2, 14, -6, -7, 34, 23, -8, 38, 27, 17, 31, 17, -17, 22, -1, -12, -13, -15, -8, -27, -7, 3, -41, -35, -11, 5, -23, 15, -14, -41, -11, -15, -3, -29, -10, 2, -19, -6, -9, -28, -59, -14, 23, -4, 25, -2, -2, 40, -12, 3, -21, -20, -21, -22, -25, -1, 5, -13, -9, 4, 5, 30, 12, 3, -13, -31, 24, 28, 31, -5, -29, -19, -9, 18, 8, 20, 37, -32, 12, 0, -9, 25, 35, -3, 20, 11, 39, 27, -13, 30, 6, -7, 2, 15, -9, -13, 25, 14, 15, -63, 13, 8, 36, 2, 19, -27, 15, -27, 0, 2, 0, -17, -44, 5, -16, 22, 13, -19, -51, -5, -14, -24, 36, -12, 11, -5, -60, -7, 24, 24, -17, -9, -16, -6, 17, 1, -4, -8, 13, -2, -27, 27, 13, 5, 22, -13, -11, -54, -9, 23, 8, -9, -43, 8, 7, -13, -22, 13, -25, -4, 7, -6, 17, -26, -14, -31, -15, -11, 0, 20, 17, 19, 8, -8, 11, -20, 31, 28, 7, 1, 0, 15, -24, 7, -7, -27, -5, -2, -43, 0, -5, -22, 21, -28, 14, -22, 0, -8, -15, -23, -12, 8, 4, 10, 13, -32, -4, 21, 16, 5, -16, -1, 21, -4, 6, 27, -1, -52, 37, -10, -21, -11, 21, 23, 10, -12, -25, 1, 8, -15, -17, -32, -27, -20, -45, -35, -16, -12, -4, -17, 1, 2, -27, 8, -11, -4, -40, -6, -10, -16, -28, 5, -34, -12, 23, -50, 4, -22, -27, 30, 15, -19, -22, 6, 32, -22, 11, 51, 15, -26, -26, -18, 23, -14, 25, 1, 24, 10, 1, -29, 14, -36, 14, 17, 1, -25, -38, 13, 20, 39, -5, 14, 8, 47, -6, 17, 2, 52, 7, -8, 8, 1, -1, 1, 33, -34, -13, 13, 11, -3, 6, -6, 23, -6, -9, 23, 11, 8, -11, 12, -59, 13, 11, 21, 40, 4, -13, -3, 4, 24, -27, 26, 17, -45, -24, -3, 9, 25, 1, 18, -7, 7, -11, -23, 4, -9, 17, -12, -8, -1, 7, 15, -17, 32, -5, -6, -55, 25, -17, -39, -6, -47, -18, -42, 1, 0, -4, 3, 8, -4, -31, -13, 7, -4, -7, 17, 38, 0, -20, -7, 27, -3, 1, 4, -19, 13, -21, 8, -15, -29, -7, -16, -3, -4, -35, -15, -20, 3, 2, -27, 9, 8, -29, -27, -30, 4, -15, -17, -9, 11, -44, 35, 19, -17, -22, 4, -14, 24, -11, -7, 43, 30, -21, 16, -23, -31, 3, -2, -12, 19, 3, 5, 5, 2, -32, 28, -27, 5, -46, 4, -14, 8, -49, -16, -7, 5, -29, 7, 14, -11, -31, -38, -25, -6, 3, -7, -8, -20, -15, -24, -19, 3, 16, -2, -23, -18, -54, 8, 21, 34, 1, 11, 5, 3, 4, 9, -54, 15, -32, -9, -11, -3, -19, -13, 15, -32, -29, -19, -19, -36, -54, -13, 11, -11, -21, 32, 10, 24, 37, -6, 26, 3, 9, 35, -20, -7, 19, 13, 11, 39, -19, -10, -23, -2, 28, -5, 26, -21, 27, 25, 6, -7, -10, 8, -53, 18, -6, -17, -19, -46, 18, -11, 7, 28, 11, -7, -2, -28, -33, 21, 41, 2, -12, -19, 19, 12, -2, -6, -28, 3, 3, -17, -28, 27, 16, -9, -23, -3, -3, -25, -32, -1, 27, -15, -33, -35, -23, -26, 5, -3, -2, 6, -17, -12, -32, -54, 21, -13, -38, -10, 20, -65, -21, 23, -23, -9, 4, 4, 30, 4, 2, 23, -3, 2, -3, -19, -7, 16, 42, -1, -35, -8, -10, 10, 4, 0, 0, -16, 17, 16, -6, -35, -21, 1, -28, -4, -8, -28, -30, 39, 17, -6, -32, -18, -12, -28, 6, 7, 12, 8, 38, 9, 19, -14, -33, -11, -25, -3, -22, 10, 34, -54, -18, -57, 3, -47, 27, -33, -11, 23, 26, -27, -4, -17, -14, 11, 2, -2, 14, 6, 7, -19, 16, -29, 25, -12, -31, 51, 8, 2, -3, 41, -13, 6, -14, -35, -20, 0, -53, 30, -6, 19, 1, 8, 13, 67, 1, 37, 0, -14, -11, -30, 8, 19, -7, -14, 16, -9, -4, -16, -31, -25, 19, -4, 3, -14, 15, -15, -18, 18, -14, -28, 8, 0, -15, -18, 10, -22, -11, -58, 1, -26, 12, -34, 1, 26, -23, -34, 5, 7, 17, -35, -16, -24, -4, -25, -11, -4, -20, -43, 11, -2, 12, 13, -2, 26, -2, 15, 14, -15, -16, 4, -18, 33, -27, -21, -15, -9, 27, -4, -19, 15, -16, -26, 1, -7, 38, -21, -43, 3, -12, -22, -9, -24, -27, -23, 0, -34, -12, -29, -36, -15, -27, -19, 4, -13, -37, 37, 12, -33, -8, 10, -19, -15, -25, -40, -14, 1, 0, -18, 26, 13, 22, 11, -17, 28, 24, -25, 17, 4, 7, -15, 25, -44, 34, -23, -6, -9, 3, 3, -20, -35, -20, -14, -17, 10, 42, 33, 27, -17, -46, 27, 38, -25, -13, 6, 19, -35, -15, -5, 16, 27, 18, 44, 7, 10, -8, -22, 12, -33, 1, 7, 11, 6, -33, -41, -25, -15, -23, 24, -15, -32, 20, -9, -21, -36, -6, -23, 16, 8, -10, -44, -32, 7, 17, 2, 19, -49, -20, -7, 7, -8, -22, 8, 3, -7, -31, -6, 27, 1, 11, 11, 55, -6, -43, -15, -11, 17, -11, -12, -1, 4, -29, 3, 22, 11, -2, -5, -2, -12, 8, 11, 46, 12, 2, 8, -18, 1, 33, 32, 24, 34, 34, -14, -30, 4, -35, 22, 15, -2, 20, 16, -31, 8, 4, 36, 4, 4, 2, -49, -41, -6, 2, 16, 25, -31, -51, 3, -19, -23, 0, -22, 22, 20, -20, 0, -11, -7, -47, 23, 36, -16, 15, -17, -8, -31, -63, 8, -27, 2, -18, -23, -32, -24, 45, -28, 5, 1, 5, -15, -30, 40, -1, 8, 9, -30, -9, -6, 13, -24, -39, 49, 5, -39, -31, -1, 30, -13, -24, 21, 18, -4, -4, -5, -13, 3, -5, -7, 6, -9, 29, -6, 22, 3, -11, 80, -13, -30, 19, -18, -30, -46, -23, -38, 20, -5, -16, -8, -24, -7, 18, -6, -27, 16, -19, 49, 10, -57, -33, 16, 12, -26, 7, -2, 26, -15, 17, 27, 58, -44, 3, -14, 10, 13, -27, 23, -37, -17, -56, -4, 0, -11, -26, -34, -42, -34, -25, -6, 17, -15, 4, -15, -14, -17, -9, 4, -17, 14, 19, -16, 3, 38, 49, 40, 27, -18, 33, -12, 11, 6, -5, -41, 49, -1, 2, 27, -11, -19, -5, 38, -4, -10, -29, 18, 54, -44, -3, 5, -4, 19, 14, -32, -2, 32, 6, 22, -10, -12, 11, -57, 14, 12, 16, -12, 25, 18, 1, -16, -10, 17, -3, -36, -12, 41, 48, -28, 3, 25, -6, -10, -12, -39, -43, -18, 29, -21, -12, -21, -37, 6, 1, 7, -39, 38, 19, 10, -7, -55, 26, -25, -3, -15, -24, -6, 29, -14, 8, -5, -12, -10, 42, 15, -14, -13, 18, -7, -16, -8, -28, -22, 9, -8, 21, 1, -23, -15, 3, 30, 4, 43, 9, -1, -11, 39, -23, 9, -8, -26, 37, -9, -14, 0, 4, 28, 15, -24, 1, 18, 41, -15, 13, -14, 8, -17, -6, -16, -20, 35, 26, -33, -24, 37, 28, -31, -34, 19, 38, 57, 15, -13, 18, -23, -8, -43, -27, 1, 7, -23, 12, -47, -23, -41, -18, 3, 9, -21, 0, -5, 13, -45, -17, 18, 25, -3, 13, 23, 5, 8, -5, -7, 27, -23, -17, -26, 15, -10, -8, -27, -14, -55, 9, -15, -3, -26, 20, 4, -6, 14, 0, 21, 2, -4, -11, -20, -12, -39, -37, -16, -3, 8, -37, 15, -4, 28, 1, -42, 31, -57, -23, -7, 7, -38, 5, 7, -13, -40, -16, 10, 19, 13, -34, 2, -3, -3, -13, 3, -4, 12, 26, 14, -19, 19, -27, 16, -13, -33, -2, -28, -57, 6, 2, 3, 25, 19, 19, -2, 4, -21, -3, 15, -11, 26, -18, 9, -12, -12, -50, -7, 27, 55, 30, 22, 0, -21, 15, -17, -29, -43, -21, 20, -21, -10, -23, 15, -5, 22, 36, 3, 21, -10, -64, 32, 45, -18, -3, 38, 17, -38, -22, -3, -16, -13, 26, -24, 16, 20, 14, -16, -23, -6, 44, -29, 2, -3, -1, 17, -54, -41, -53, 6, -15, -2, -14, -8, 2, -37, -9, -9, 12, -9, -1, -31, -17, -34, -38, -25, -13, 16, -8, 42, -1, 23, -6, 8, -7, 25, 11, -16, -3, 15, -14, -3, -21, 8, -31, -3, -32, 21, -8, -8, 8, -21, -15, -21, -27, -24, -25, -37, 28, 3, -52, -20, 5, -22, -4, 6, -17, 25, 3, 3, 35, -25, 2, 33, -11, 23, 5, 45, 10, -2, 6, -36, 25, 2, -33, 1, -29, -18, -10, -35, -49, 10, -5, 19, 1, -4, 37, 3, 7, -17, -4, 2, -27, 3, 19, -34, -22, -30, -10, -13, -11, -6, -24, -47, 29, -46, -26, 13, -10, 23, -21, 44, 16, 27, -30, -3, -10, -20, -23, 15, 28, -20, -9, -28, -36, -1, -23, -26, -23, -33, -10, -32, -53, 35, 2, -19, -8, 39, 31, -19, -25, -21, 27, 17, -15, 15, 10, -13, -36, -3, 9, 46, -25, -48, -32, -7, 11, -29, -29, -19, 6, 24, -38, 3, -15, 18, 26, 10, -28, -4, -23, -10, -18, 10, -49, 16, 1, -23, 1, 3, 23, -6, 24, 33, 30, 14, 3, -19, -3, -26, 3, -15, -11, -7, -23, -32, -20, 31, -24, -23, -26, -22, 0, -35, -8, -12, -17, 0, -33, -1, 3, -12, -20, -15, -18, -2, 5, -29, -24, 11, -20, -28, -35, -10, 47, 14, 18, -39, 20, -43, 10, 0, 18, 12, 18, -31, -15, 28, 7, -1, -1, -46, 13, -11, 7, 18, 11, 0, -33, 13, -24, -23, -8, 15, -24, -7, -18, -39, 6, 31, 19, -16, -47, 6, 10, -48, 30, 27, 5, -25, 10, 19, -17, 24, 43, 35, -13, -4, -8, -3, 29, -11, -38, -4, 47, -4, -11, -23, -11, -7, -27, 20, -20, 41, -38, -9, -17, 17, -2, -2, -32, 12, -6, -19, -53, -37, -28, 17, -8, -24, -2, -11, 12, -13, -26, 10, 20, -30, 20, 21, 17, -26, -1, -6, 4, -23, 1, 27, -4, 7, -40, -1, 32, 3, 0, -24, -29, 10, -15, 12, -6, -21, 32, -20, 37, 23, 27, 22, -27, 8, 15, 39, 2, -27, 15, 10, -12, 36, -21, 21, 39, 2, -30, -8, -10, -7, 52, 9, 6, 15, 10, 26, -20, -20, -18, -20, 14, 5, 30, 27, -16, 3, -4, 16, -1, -3, -22, -5, -37, -33, 10, -9, -1, -10, -4, -30, -60, 10, -5, -13, -4, -23, -19, 27, 14, -1, 17, 12, -15, 7, -20, -28, -29, 21, -15, -14, 19, -17, -11, 6, -4, -12, 1, -3, -30, -8, 12, 10, 1, -7, -14, 5, 2, -2, -50, 16, -27, -27, 14, 42, 40, 11, 20, -31, -5, 22, 13, 14, -26, -10, -12, -3, 3, 28, 6, 11, 10, 19, -41, -23, -4, 16, -4, 12, -27, 21, 27, 21, -13, -3, -29, 26, 3, -5, 24, -12, 26, 12, 31, 2, -9, 4, -20, -13, -16, -7, 7, 18, 0, 14, -13, -32, -42, -26, 28, -4, -21, 1, -2, -17, 16, -1, 5, 15, -25, 13, -4, -29, -46, -24, -21, -27, -8, -33, -21, -27, -18, 6, 17, 21, -4, -6, -15, -5, 10, -27, -19, -8, -8, -4, 7, 10, 35, -3, -34, -5, 2, 22, -4, 48, -15, -3, -15, -52, -3, -16, -21, -29, -9, -16, -19, -8, -26, 4, -30, 36, -5, 23, 3, 1, -12, 14, 15, -6, -19, 9, -2, -20, -31, -11, 12, 26, -8, 0, 36, 16, -3, 40, -9, -2, -28, 3, -7, -13, -48, -35, -28, -21, 5, -17, -9, 23, -13, -44, -38, 15, 22, 10, -10, 12, 8, -21, -8, -12, -16, 7, -5, -6, -34, -4, 3, -3, -44, 1, -14, 4, -43, -1, 16, -29, -18, -30, -19, 1, -6, -1, -33, 24, -3, 3, -12, 22, -23, -22, -12, 2, 28, -1, -13, 39, 5, 5, -31, 34, 27, -53, -27, -7, -25, -23, 32, 39, -17, 30, 36, -11, -28, -31, -9, -12, -5, 12, -24, 23, -33, 4, -4, 22, 2, -12, 1, -34, 24, -6, -10, 9, 3, 5, -17, 41, 53, 2, 53, -6, 16, 13, -18, -3, -2, -16, 15, -43, -18, -36, 21, -13, -37, 33, -32, -3, 3, -8, -23, -20, -58, -2, -1, 5, -18, -10, -6, -58, 22, -12, -12, 8, 0, 10, -7, -47, -36, -11, -41, -13, -38, 3, -16, -1, -11, -12, -13, 4, 23, -17, -22, 15, 7, -6, -6, 12, -37, -44, 9, 30, 16, -20, 56, -11, 15, -23, -29, -30, -11, -34, -7, 5, 27, -15, -13, -15, -20, 5, 50, 15, 35, 17, 23, 45, -17, -2, 28, -21, 29, -5, -25, 6, 3, 5, 0, -21, 18, 28, -12, 0, -5, -15, 25, -24, -2, -29, -21, -13, -38, -6, -39, 21, 45, 18, 21, 40, 34, -18, -32, 22, 16, -14, -12, -42, 26, 15, -12, -16, -5, -31, 6, 4, -11, 10, 17, 17, -23, 25, -3, 24, 10, -18, 19, -6, -8, 7, 29, -49, -16, 5, -18, 7, 15, -40, 16, 8, 4, -4, -39, 11, 18, -11, -30, -7, -23, -24, 7, -25, 11, 16, -24, 51, -4, -1, -40, 25, -11, 11, -11, 2, -40, -1, -34, 15, 3, 5, -4, -2, 25, -38, 24, -44, -14, -12, -26, -24, 0, -36, -15, 9, 26, -23, 8, -32, 7, 4, -16, 27, 26, -2, 39, -6, 15, 15, 19, 16, -23, -27, 3, -36, 17, -19, -15, -2, -46, -6, -24, -7, 27, -2, -8, -32, -19, -4, 10, -27, -17, -10, -8, -6, -35, 6, 1, 11, 27, -15, 36, -1, -37, -37, 21, -39, -6, 28, -9, 11, 10, -6, -16, 5, -2, -4, -59, -21, 30, 4, -33, 18, -1, -13, -16, 2, -8, 29, 1, 28, 30, 20, -7, -1, 27, 10, -20, 32, -24, 23, -2, 33, 16, 12, 28, 23, -17, -4, -53, -13, -29, -28, 19, 7, -2, 9, 28, 9, 8, -8, 10, 2, -36, 1, -35, 4, 4, -10, 11, -33, -9, 25, 10, 50, 9, 11, 17, 10, 14, -45, 14, -11, 26, -6, -30, 29, 36, -18, 26, 39, -7, -29, -22, -3, -26, 38, 25, -49, -15, 10, 9, -58, 15, 13, -23, -9, -18, 33, 1, -33, -9, -9, 9, 1, 6, -26, -26, -14, -2, 23, 7, 34, 13, 13, -22, 8, 22, -2, -39, 4, 34, -4, -8, 6, 41, -6, -5, 5, -40, -23, 1, 12, -1, -12, -2, -10, 49, -6, 32, -26, 14, 7, 28, 2, -26, -14, -12, 10, -58, 20, 12, -1, -27, -15, 7, 35, 11, 14, 8, 8, 2, 11, 22, -3, 17, -12, -2, 36, -19, 1, 24, -14, 10, -15, -6, -7, -22, 3, 7, -32, -41, 2, 34, 26, -17, -14, -32, -23, 6, -39, -14, -12, 31, -23, -10, 12, -2, -23, 1, 40, 24, 29, 9, 2, 15, 16, -4, 15, 0, -21, -8, 36, -6, -16, -12, -7, 9, -44, 17, 1, 5, -25, 20, -36, -39, -33, -31, 15, 1, 30, -6, 8, 16, -6, -11, -5, 7, 5, 36, -26, -36, 20, -18, -12, -7, -17, 27, -13, -12, -9, -1, 1, 13, -13, 21, -25, 5, 4, -17, -8, -2, -57, -27, -30, 2, -19, -21, 15, 9, -21, -11, 40, -44, -44, 44, 10, 6, 5, -1, -2, 7, -6, -8, 10, 9, -17, -13, -19, -10, 41, -31, -36, -6, 1, 17, -12, 0, 3, 25, -38, -4, -28, -2, -14, -18, -38, -24, -32, -4, 18, 14, 20, -32, 21, -10, -34, -9, -5, 0, -10, 2, -15, 0, -22, -19, 13, -21, 16, 27, -22, -12, -9, 16, 13, 50, -4, -42, 7, 9, -12, -21, 22, -21, 14, -10, 23, 11, 27, 11, -12, -5, -26, -36, -7, 1, -5, 5, 9, -2, 4, 7, -14, -21, -11, -6, -5, 8, 26, -12, -13, 31, 13, 4, 58, 7, 11, 10, -6, 9, 35, 19, -13, -23, 10, -51, -24, -13, -35, -2, -6, 28, 2, -7, -8, 16, -58, 0, 10, -18, -24, -15, -35, 2, -13, -4, -21, 8, -19, 31, 24, -4, 5, -26, -50, -47, -4, -14, -15, -58, 17, -22, 1, -13, -3, -39, -9, -39, 2, -3, -17, 47, 5, 24, 7, -26, -12, -17, 39, 13, 49, -1, -10, -16, 8, 1, 21, 10, 3, 15, 4, 20, -12, 48, 2, 8, -1, -17, 8, -15, -24, -1, 22, -5, -4, 7, -26, -14, 8, -9, -12, 15, -10, 30, -23, -45, -35, -6, 24, -6, -16, 7, -16, -58, -4, -5, -15, -4, 31, 3, -8, -9, 24, 34, -7, -43, -13, -32, 12, 5, -2, 27, 8, -7, 5, -31, -2, 3, 6, 3, 11, 15, -12, 2, -10, -17, -1, -36, 5, 31, 1, 23, -42, -31, -15, 6, 2, -1, -1, 11, -28, -9, -8, 4, -16, -16, 45, 5, 4, -27, -31, 15, 11, 0, 19, 22, -8, -1, -21, 3, 10, 20, 4, 23, 25, -2, -13, -10, -1, -11, -49, -3, -2, 30, -31, -24, -11, -7, 3, 25, 1, -3, 7, 4, -18, -14, 19, -3, 28, -3, 52, 10, 13, 6, -29, -14, -23, -16, 24, 14, -21, -19, -23, -9, -6, 1, -24, -39, 1, -6, -4, -2, -31, -19, -15, -11, 26, -6, -23, 16, 1, -17, -41, -12, -53, -31, -22, 3, -18, 0, 4, 2, 6, -39, 40, -24, -16, -53, 0, 3, -7, 12, -16, -70, -11, -24, -17, -16, 26, 7, 12, 0, 6, 11, 14, 11, -1, 0, -12, 34, -5, -16, 0, -17, 0, 22, 24, 10, -1, -26, 9, 18, 11, -11, 40, 20, -15, 16, 8, 12, -34, 1, 13, -7, -19, 2, 2, -9, 19, -25, -16, 38, -9, 40, 3, -36, -31, 7, 20, -4, -3, -15, 33, -13, -11, 7, -30, -9, -7, -31, -12, 27, 21, -15, -23, 15, -1, 6, -55, 0, 15, 7, -37, -53, 27, 19, 0, -25, 38, -15, -28, 12, -5, -6, -16, -4, -29, -40, 0, 8, 0, -12, -9, 15, -53, -33, 4, -15, -34, -33, -6, 39, 6, -19, -26, 26, -4, 35, -3, 10, 3, 12, -2, 10, 28, -1, -7, -13, 3, 40, -28, -23, -14, -27, 22, -31, -30, 22, -28, 21, 2, 0, -5, -21, -29, -25, 6, 46, -42, -1, 78, -3, 20, -28, -7, 5, 21, -15, 8, 8, 4, -4, -8, -15, -8, 9, -21, 0, -10, -5, -7, -14, -3, -13, 1, -11, -24, 7, -7, 12, -7, -37, -28, -45, -34, 10, -16, 20, 7, 20, -25, 4, -15, -43, -54, -15, 6, -24, 13, -14, -16, -2, 24, 10, 2, -40, -23, 11, -26, -18, 4, -8, -7, -29, -10, 3, -23, 18, -6, 27, 1, -30, 32, -18, -21, -35, -10, 20, -4, 0, -1, 28, 43, 2, 18, 13, 45, -11, 12, -21, 20, 12, -3, 37, 16, 36, 8, 27, -24, 5, 7, -11, -14, 16, 32, 1, -15, 12, 3, 1, -13, -7, 0, -12, -30, -8, 0, 0, 3, 12, -23, 45, 5, -70, 13, 0, -9, -10, -2, 30, 15, 7, -46, -20, -23, 4, 2, 15, 38, -7, -25, -40, 32, 36, -21, -3, -4, 10, 6, 28, 24, 25, -37, 17, -18, -18, 13, 37, 15, 6, 21, 7, 34, -21, 23, -6, -45, -19, 22, 11, 9, 9, 43, 41, -7, 14, 11, -14, -1, -23, -32, 8, 0, 25, 3, 6, -15, -38, 14, -18, 12, 33, -9, -14, -35, 15, -13, -27, 21, -21, -44, -6, -32, -27, -29, 26, -15, 6, -6, 16, 34, -7, 5, 30, -14, 11, -6, 9, 12, -43, -10, -45, -37, -12, -1, -30, 23, -32, -36, 8, 18, 20, -3, -22, -11, -13, 1, -25, 14, 1, -31, -20, 13, -5, -4, -10, -13, 23, -10, -11, 36, -1, 26, -26, -5, -15, 7, -48, 43, -31, -10, -7, -38, -26, 30, 2, 25, -36, 27, 16, 37, 7, 10, 16, -1, -1, -2, 13, -9, 16, -14, -10, -13, 1, -20, 7, -5, 12, 11, 18, 20, 19, -23, -4, 16, 15, -20, 4, -11, -32, -56, -38, -22, 10, -25, -27, -30, -19, -3, -7, -39, -35, -20, 13, -20, -18, -45, -2, -2, 4, 27, -29, -32, -11, 3, -4, 12, -20, -3, 31, 30, 3, -35, 17, 8, -10, -7, 23, 52, -16, 31, -37, 39, 18, -9, -16, -13, 5, -6, -2, 22, -4, -13, -47, -5, -5, 27, -12, -6, -19, 18, 32, 9, 14, -27, -11, -13, 5, -2, -15, -33, 0, 12, -2, -33, -45, 42, 18, -31, -29, -7, 14, -20, 8, -29, 21, 21, -6, 9, 16, 41, -5, -15, 38, -42, 3, -18, 33, -4, -48, -28, -8, -23, -37, -2, -21, -36, -23, 10, -8, 39, -14, 2, 41, 30, -46, 3, 23, -10, 56, 48, 40, 2, 17, 45, 9, 37, -14, 28, -1, 20, -11, -5, -12, -5, -23, 44, -17, -45, -10, 19, -4, -14, -27, -15, -22, 7, 33, -30, 6, -27, -14, 6, -16, -13, 17, -32, -38, 13, 37, 22, 41, 14, 22, -6, 17, -24, 5, -1, -17, 33, 38, -2, 13, -14, 38, 1, -35, -30, 0, 29, 29, -3, -14, -31, -35, 0, -30, 7, -47, -7, 9, -25, 1, -21, 1, 10, -12, 6, -6, -20, 12, -12, -22, -21, -48, 11, 14, -30, -10, -31, 12, 20, 6, 12, -2, -10, 13, -15, -17, -20, -9, -53, -7, 1, -26, -18, -2, -31, -15, 47, -21, -24, -30, -13, -10, 24, 47, -4, 34, 8, -11, 22, -11, -25, 24, 46, 9, -7, -3, 19, 30, 6, -19, 38, -16, 21, -4, -27, -27, 12, -18, -34, -7, 6, -10, 5, 13, 35, 17, 35, 20, -10, 11, 19, -47, -20, 1, 1, -3, -22, -17, 28, 9, 18, 38, 18, -37, -28, -36, -31, 1, -11, -24, -12, -2, 29, 3, 8, 38, -12, -1, -2, -4, -7, 14, -5, -5, 4, 19, 16, -7, 16, -4, 1, -12, -19, -32, -23, 18, 12, -5, 33, 1, 0, 1, 7, 19, -20, -4, 30, -10, -16, 16, 31, 12, 17, 35, -19, -8, 21, -13, 3, 51, 7, 20, 5, -33, 24, 14, -18, -29, 9, 43, -21, -29, 48, 18, -2, -40, 4, 9, 12, -6, 40, -23, 7, 37, -12, -13, -19, -11, 4, 22, 16, -27, -1, 30, -17, -14, 6, -1, 26, 4, 11, 22, 21, 6, -20, -42, 41, -17, 15, -23, 39, 18, 38, 9, -2, 15, 16, -9, 12, -12, 10, 6, 27, -9, -17, -14, -3, -10, 21, -7, 37, 6, 0, -7, 9, 17, 13, 9, 3, -5, 23, -12, 14, -10, -3, 46, 8, -29, 10, -14, 5, 8, 25, 34, -47, -15, -7, 0, -5, 24, -15, -4, -11, -12, -23, -17, -5, 1, 0, -13, 30, 29, -14, -2, -43, -2, 17, 32, -41, -31, 22, 25, -4, -17, 10, -43, 31, -27, 6, -28, 29, -3, -9, 11, -20, -10, 0, -31, 9, -8, 11, 16, -21, -14, 9, 23, -36, 14, -9, -18, -6, -17, -33, 3, 5, 36, -5, 2, -6, -3, -13, -23, -24, -47, 34, 28, -9, -24, 10, 12, 0, -12, 11, 15, 25, -13, 48, 24, 27, -6, 23, -19, 12, 23, 20, -4, -31, -33, -19, 36, -26, 39, 49, -20, -17, 25, -5, -21, -18, 0, -13, 26, 35, 27, -5, 7, -6, 13, 19, -27, 10, 1, 0, -5, -12, -28, -2, -35, 18, 5, -6, 0, -7, -22, -12, -32, 12, -6, -21, 30, -6, -18, 21, 11, -13, -35, -36, -1, 33, -2, 31, 20, -25, -18, -58, 4, -7, 1, 3, 0, 41, 7, -2, 17, -36, 10, -12, 3, -6, 15, -33, 1, 13, -3, 18, 26, 29, -25, -16, 1, 8, -41, -10, -28, 40, 20, 28, 30, 17, -27, -24, -36, -14, -17, 30, 8, 48, 19, -9, 5, 10, 21, 20, -3, -24, 45, 6, 3, 13, 6, 12, -18, -1, -27, 28, 32, 2, 8, -7, -5, 3, 24, 14, -4, -20, 1, 55, -9, -13, -20, -27, -7, -6, 13, -45, 28, -9, 21, 7, -43, -6, 2, 20, -23, 1, 10, 23, 15, 5, -23, 1, 29, 5, 51, -32, 0, -19, -8, 34, 36, 6, -22, 13, -4, 23, 24, 17, -21, -23, 16, 18, -28, -10, 44, 17, 28, 11, -15, -23, 29, 30, 6, -17, 13, -1, 31, 14, -22, -41, 23, -29, -5, 13, 40, 26, -7, 0, 1, -1, -6, -15, 11, -16, 2, -6, -5, 1, -29, -18, 4, -1, 42, 10, -15, 20, -23, 25, 8, 13, -51, 19, 3, -46, 13, -15, 6, 8, -32, 34, -14, -23, -29, 12, 12, 16, 13, 31, -8, 1, 23, -5, 73, 14, 31, -16, -9, 0, -14, -9, -10, -14, -48, 26, -43, 3, -1, 16, -22, -28, 13, 33, 9, -45, 5, -8, 11, -12, 10, -3, -30, 11, -37, 15, -7, -14, -14, 9, 8, -2, 21, -11, -8, -8, 5, 27, 9, -1, -17, 0, 5, 37, -4, -2, -23, -19, 38, -9, -1, 8, 46, -6, 35, -29, 3, 15, 10, -14, -8, 42, 15, 38, 27, 14, -9, -10, 3, -28, -2, 22, 21, 19, 61, -1, 25, 23, 8, 23, -52, -20, -14, -11, 23, -42, -30, 2, -7, 12, -21, -4, 32, -16, 3, -8, 5, -32, -16, 16, 1, -17, -7, -2, -18, 21, -1, -2, -31, -45, 28, -8, 12, -21, -8, 19, 1, -21, -22, -27, 19, -27, 12, -14, -25, 18, 10, 5, 14, 9, 2, -30, 1, 26, -22, -18, 22, 19, 13, 15, 5, 1, 23, -10, 15, -3, -16, 29, 49, 65, -35, 10, -27, -8, 33, -4, -30, -16, 30, 18, -13, 31, 6, -22, -6, 3, -2, 12, -16, -26, 2, -31, 49, 3, 3, -10, -16, 18, 8, 11, 29, -32, -11, 20, -15, -30, 38, -5, -13, 17, 20, -13, 24, -17, 3, -28, -17, -37, 2, -24, -19, -43, 33, -44, 41, 26, -21, 17, -1, -8, -12, 17, -20, 26, 9, -26, -21, -27, 4, 0, -35, 10, 28, -34, -25, 25, 23, 4, -24, -7, -6, 8, -19, -6, 24, 20, -28, -10, -27, -11, 0, 1, 19, -10, 30, -13, -23, -3, 3, -8, 15, -9, 15, -24, 4, -20, -27, 22, -4, 38, -7, -9, 16, 5, 5, -12, 26, 19, 15, 24, 21, -7, -28, 2, 29, 27, 23, 17, -23, -42, -26, -6, 24, 9, 45, 36, -11, -1, 25, -31, -11, -5, 21, 6, -14, -17, -21, 2, -42, -21, -43, 2, 0, 4, -14, 3, -2, -30, -14, 48, -9, 26, 9, 24, -15, 45, 12, -35, -2, -6, 26, -32, -35, -11, 23, 46, -23, -12, 18, -22, -19, -7, -7, 8, 8, 13, 5, -17, 18, -12, 8, 39, 3, 23, -47, -3, -17, 24, 20, 16, -18, 27, -7, -26, -4, -15, 26, 23, 31, 24, 41, -18, 45, 30, 40, -3, -49, -22, -33, -1, 2, -3, 7, -27, 9, -41, 4, -49, -12, -2, 23, 9, 2, -3, -22, -22, -13, -34, 6, -15, 3, 5, -9, 10, 32, -10, -29, 19, 24, 9, -39, -11, 23, 23, 6, -55, 26, 17, -1, -4, 20, 22, 10, -14, 11, 8, -8, 17, -17, 18, -19, -9, 8, 50, 3, 3, -16, -5, 35, 9, -12, -13, -3, -7, -27, -10, 37, 34, 3, 18, 9, 10, -1, -12, -22, -34, -1, -21, -20, 10, 3, -45, -26, -22, -7, 0, -3, -10, 15, -5, 31, 1, -36, 5, 28, -10, -7, -21, 29, 21, 3, -13, 1, 29, 33, 19, 13, -1, -8, 30, 0, 35, -12, 16, -2, -14, -40, -10, 31, 1, -30, 3, 1, -38, 11, -21, -3, -4, 13, -30, 0, 24, 53, -5, 2, 24, 7, 0, -5, 35, 47, -38, 19, -46, 2, -30, -31, 20, -27, -6, 11, -18, -18, 9, -2, -5, -8, 39, -8, -2, -24, -30, -13, -29, 26, -16, 10, 17, -5, 21, 8, -6, 25, -16, 11, -22, 9, -28, 1, -5, -17, -21, -15, -5, 3, -14, 33, -24, -2, -14, -1, -18, -14, -24, 9, -6, -25, 15, -21, 20, -43, -2, -10, -18, -21, -6, -1, 2, 23, -12, -9, 56, -18, 9, 0, 13, 29, 1, 20, -7, 14, 8, -34, 31, 14, 10, -4, 44, 31, 21, 21, 5, -11, 19, 3, 2, -14, 23, -12, 9, 27, 11, 15, -31, 18, 19, 21, -3, 6, -10, 6, -35, -11, -20, 25, 11, 18, 5, -16, -23, 24, -31, 26, 3, -11, -23, -3, 9, 23, 23, 24, -18, -2, -17, 16, 1, 17, -35, -12, 2, -11, 1, -22, -23, -32, 36, -11, -10, 57, 9, -22, 6, 23, 4, -8, 22, 36, -28, -16, -3, -9, -39, -35, -57, 8, 18, -4, 23, 47, 54, -9, -8, 3, -45, 7, 20, 26, 6, -16, -8, -54, -7, 10, 36, 4, -8, -11, 30, 9, 56, 3, -34, 40, -8, -15, -24, 0, -3, -14, 3, 22, -7, 9, -29, -58, 26, 8, 23, -8, 27, 0, 12, 16, -7, 9, -10, -1, 9, 22, -18, 11, -6, -4, -30, 0, -12, 3, 3, 18, 13, -33, -12, 28, 1, 6, 27, 22, -13, -11, 0, 25, -17, -3, -8, -14, 35, 0, -32, 14, -9, 18, 11, -4, 25, -20, 3, 11, -11, 22, 24, -8, -16, 52, -26, 6, 14, 21, 25, 33, -25, 18, 5, 10, 12, 20, -24, -13, 5, -29, -49, 25, 34, 35, -16, 5, -4, -26, 19, -2, 53, -45, 11, 9, -2, -23, 12, 28, -24, -8, 4, 47, -4, -19, -18, 8, -7, -18, 28, 4, -9, -36, 12, -7, -11, 0, -21, 21, 20, 33, -23, -18, -5, 12, 25, -5, 54, 10, -14, -13, 18, 12, 0, -14, 15, 4, 42, 16, -10, 22, 1, -7, -9, -12, -3, 10, 29, 25, 4, -19, -44, 35, 17, -33, 19, -55, 16, 9, 34, 41, 28, -14, -3, 0, -48, -12, -9, 19, -9, -22, -6, 16, -15, 11, -6, 30, -35, 17, 7, -19, 21, 5, 27, -7, 18, 7, -11, -12, 21, -1, -2, 7, -13, 8, -2, -12, 19, -6, 7, -24, 13, -24, -28, -13, 20, -2, -25, -12, 24, 36, -19, 8, -22, -12, 20, 46, -16, 43, 3, 25, -44, 28, -17, -12, -13, -7, 61, 6, -60, 20, -8, 15, -13, 13, 26, -12, 17, 13, 0, 6, 21, 31, -7, -46, 1, -9, 7, -5, -7, 18, -8, 10, -7, 12, 3, 3, -22, -15, 20, -25, 4, -20, 4, 20, -8, 29, -25, -6, 29, -23, -3, 5, 39, 14, 2, 13, -41, 31, 6, -9, 33, -30, -1, 5, 10, -29, -15, -28, -16, 18, -5, 11, 7, 20, -34, -22, 4, -13, -16, 10, 20, 14, 17, 2, 18, 5, 15, 23, 3, -7, 4, -67, 16, -24, -2, -8, -1, -14, 9, 13, 33, -50, -14, -11, 6, 37, 64, 11, 2, -17, 24, -2, 12, 5, -17, 8, -3, 11, -6, 14, -11, 1, -11, -1, 6, 1, 38, -1, 10, -7, -23, -2, 1, -2, 36, -28, 15, -12, 37, 9, -6, 8, -15, 13, -1, 46, -23, -33, 36, -24, 1, 23, 31, -3, 42, -10, 7, 7, -24, 34, 7, 19, 31, 20, 20, 4, -20, -29, 16, 17, 7, -4, 32, 17, -44, 16, -11, -10, 10, -39, -30, -25, 5, -14, 20, 11, -5, 24, 18, -4, -38, -12, -9, 26, -34, 29, 13, 14, 16, -28, -14, 8, 49, -4, 12, -65, -25, -4, -32, -15, 12, 35, -27, 7, -18, -3, 3, -2, 29, 14, -27, 1, 31, 3, -8, -6, 42, 10, 25, 11, 10, 35, 3, 9, 4, 6, -12, 17, -19, -14, 15, 5, -4, 38, -4, 28, -38, -9, -9, 23, 21, -54, 26, -20, -15, 35, 6, 1, -12, -14, -9, 1, 35, -13, -10, 18, -7, -24, -21, -9, 1, 15, 18, 26, 7, 0, 24, 7, -24, 6, 1, 23, 3, 25, 26, -5, -4, 3, -22, 1, 33, 29, 19, -6, 35, 13, -23, 15, -7, -14, -18, -17, 30, 18, -27, 17, 21, -39, -35, 9, -39, -14, 47, -2, 12, -13, -55, 25, -19, -16, -5, 9, -7, -11, -21, -7, 16, 2, 19, 11, -22, -2, 9, 24, 49, -19, -19, -10, -7, 27, 41, 54, 20, 4, 2, -13, 38, -10, 5, -2, -21, 19, 2, 24, -6, -36, 22, 22, 13, -15, 8, 7, 6, -3, 1, 3, 10, 3, -20, 19, -11, -10, -16, 29, 16, -16, 29, 23, -22, -20, 13, 20, 2, 3, 8, -12, -8, 15, 0, 65, 29, 12, 16, -4, 3, 13, -2, 19, 16, 27, 27, -3, -14, 29, 6, -25, -30, -21, -17, -25, 4, -1, -40, 16, -8, -20, 57, -5, 21, 32, -15, 18, 17, 10, -39, -16, 2, -19, -12, 44, 15, 0, 23, -25, 3, -22, 15, 1, 12, 39, 28, -5, -23, 3, 24, 21, 8, -34, -14, -26, -9, 21, 8, 1, 38, 8, -1, -5, -5, -9, -25, 14, 1, -9, 10, 42, 7, 22, -32, -7, 31, -26, -17, -14, 9, -7, 32, 4, 5, 34, 22, 12, 19, -16, -8, 0, 25, 21, 23, 43, -24, 19, 8, -19, 14, -12, -7, -3, 21, 0, -62, -15, -22, -40, 14, 13, -24, -2, 19, -17, -23, 12, -43, 19, 18, -15, 5, 2, -23, -1, 14, -17, 26, 8, -19, 20, 15, 17, -5, -47, 27, 16, 27, 14, 15, -11, 24, -7, -20, 4, 28, 3, 21, 28, 21, -1, -25, -12, -4, 13, 30, 6, 3, 16, 38, 8, -24, -9, -12, -1, -2, -44, 12, 35, -3, 28, 4, -40, -8, 12, -11, -19, 19, -12, -7, -7, 20, -14, -9, -18, -42, 9, -6, 12, 8, -7, -12, 8, -2, -11, -29, -6, -24, 12, -9, 19, -20, 2, -20, 0, -17, -15, -13, -16, 22, -40, -30, 18, -13, 27, 13, 5, 3, -31, -1, 41, 22, 14, -10, -9, 35, 59, -12, -18, 12, -5, 37, -31, 16, 11, 18, -3, 7, 8, -14, -39, -27, 17, -10, -16, -26, -49, -66, 36, 14, -12, -19, 2, 37, -19, 32, 5, -6, -19, 2, -16, -1, -2, -10, -2, -3, 14, -18, -10, 13, -3, 14, 18, -8, 6, 12, -27, 9, -47, 27, 10, 7, 6, 6, 26, -6, 3, -12, -9, -18, -3, -43, -14, -4, 8, 23, 9, 28, 29, 11, 32, -9, -52, -3, -6, -5, 42, -16, 19, -33, 1, 27, -14, -8, 21, 13, -11, 28, -30, 4, 7, 18, -46, -16, -51, -22, -14, -8, 9, 19, 16, -31, -7, 13, 8, -6, 20, 18, -25, 2, 21, 33, 12, 1, -3, -14, 18, -32, 21, -25, -18, 29, -2, 14, 32, -9, -4, 3, -34, 1, 12, -5, 50, -27, 2, 26, -11, 12, 7, 42, -10, -2, 0, -29, -3, -21, -14, 27, -1, 16, -33, -3, -10, 6, 20, -23, -19, -15, 18, 10, 10, 3, 4, -4, -1, 39, -63, 44, -6, -2, -2, 41, -7, 6, 17, 15, -19, 27, -36, -27, -5, 7, 12, 12, -2, -2, 2, 52, -9, 22, -5, 28, 30, 2, -46, 26, 4, -3, -20, -5, 3, -4, 15, -11, 33, -15, 32, -13, -21, -21, -8, 5, -12, 40, 51, 1, 13, -8, -12, 2, 26, 6, 14, -35, -21, 23, 6, -1, -7, -30, -9, -16, 4, -5, -7, -4, 27, 21, 16, 59, 14, -14, -24, 14, 5, 31, -30, 27, 33, 13, 5, 15, 8, -58, 10, -21, 14, -18, -32, 8, -17, 29, 5, 2, -22, 15, -26, 9, 40, -12, 14, -14, -5, -2, 14, 5, 18, -26, 16, 11, 6, 3, -19, 6, 4, 3, -13, 28, 44, -5, 12, -15, 18, -3, -7, 3, -11, 14, 9, 3, -6, 21, 16, -3, -7, 40, -1, 39, -5, -5, 12, -29, -22, -22, 9, 14, -24, 12, 5, -32, -11, 17, -30, 15, 13, 7, -9, 9, 30, 17, -7, 19, 34, -6, -14, -48, 17, 4, -18, -7, -19, -11, -21, -14, 13, -4, 30, -8, 41, 9, 5, 27, -20, -13, 4, -20, 32, 16, 31, -24, -65, -27, 7, -13, -16, -28, -25, -6, 37, 11, -8, -13, -57, -10, 10, 22, -23, 9, 68, 14, 9, -1, -9, -16, 17, 10, 2, -8, -15, 29, 33, 2, -7, -15, -25, 46, 21, -7, 36, 10, 51, 22, 6, 22, 12, 9, -17, 1, -44, -33, 27, -42, -44, 50, -13, 7, -14, 16, 3, 10, -10, 0, 17, 5, 3, 26, -15, -26, -31, 27, 12, -23, -52, -2, 13, 11, 25, -2, 5, 13, 11, -13, -14, -37, 3, 30, -4, 7, 38, 2, -5, -19, -15, 15, 27, -35, 5, -15, 21, -22, -4, 14, 14, 34, -47, 3, -13, -13, 8, -6, -19, 20, -27, -20, 22, -43, 10, -15, -1, 18, -11, -31, 18, -15, 18, -5, 7, 20, -21, 41, -11, 9, -11, 0, -11, 1, 6, 13, 36, 35, 12, -24, 4, 19, -36, -19, 24, 16, -1, -9, -16, -3, 4, -5, 20, 18, 21, 20, 7, 25, 0, -6, -30, 0, 10, 25, 42, 4, 10, 8, -26, -41, -28, -24, -22, -50, -37, -9, 26, -54, -43, 5, -17, -7, 1, 22, 18, 24, 5, 12, -14, -28, -48, 13, 3, 53, 7, 14, 5, -18, -13, 40, -13, 5, -6, -8, 27, 21, 2, 35, 19, 6, 15, 15, -4, 28, 27, 19, -30, 34, 22, 14, 14, -10, -22, -7, -11, -14, -13, 24, -22, 31, -1, 2, -15, 28, 1, 20, -10, -29, -34, -10, 24, -5, 20, -4, 44, -16, -39, 24, 8, -16, -26, 31, 17, 33, 3, -1, -42, -14, -11, -19, 25, 3, -5, 21, -4, -6, 36, 0, -26, -4, 5, -8, -21, 27, -9, -6, -24, -35, 3, 8, 9, -22, -47, 13, 13, -26, -53, 20, -20, -32, -25, -17, 17, -33, -20, -36, -16, -11, -20, 13, 28, -5, 15, -10, -10, -40, 14, 14, 4, -32, -35, -6, -62, -6, 38, 0, 9, 12, -35, 1, -27, -6, -3, -28, 4, -51, -4, 38, 22, -16, -10, 34, -31, -3, 11, 25, 0, -2, 39, 15, 14, -17, -5, -37, 24, -15, 0, -32, -40, -33, -52, 26, 11, -20, -9, -27, -44, 17, -40, 7, -21, -23, 1, 4, 4, -27, 23, -38, -11, -28, 26, -44, 3, 11, 35, -18, -31, 1, 2, -26, -4, 20, -8, -2, 36, -27, 1, 46, 18, 20, -8, 8, -8, 3, -64, 26, -3, -45, -37, -21, 9, -52, -49, -5, 14, -24, -43, 11, -9, 11, 33, -36, -23, 9, 34, 14, -29, 46, -31, 45, -6, -11, 45, -9, -19, 1, 18, -13, -11, 9, 6, -29, -25, -36, 15, -12, -5, 1, 0, 1, -36, 13, -19, -35, -26, -3, 4, -6, 35, -14, -23, -33, 27, -26, -9, -2, 8, -12, 12, -6, -25, -43, -8, -19, -7, 24, 27, -24, 10, 18, 17, 10, -15, -15, -19, -41, 17, -37, -2, -5, 3, 48, 14, -9, -16, -39, -29, -4, -14, -43, 29, -43, -31, 15, -17, -17, -1, -59, -28, 21, 16, -2, -38, -14, -16, 9, -10, 0, 29, -9, 5, -9, -26, 57, 5, -4, 1, 52, 39, 41, -45, -15, -19, -12, 10, -14, -22, -28, -26, -37, -13, -10, 15, 17, -10, 20, 46, -9, 48, 37, 6, -6, 7, -8, 26, 11, -18, 42, 8, 12, 19, -14, 36, -23, -9, -13, 21, -19, -23, 17, -22, -11, 6, -37, 20, -15, -26, 1, -33, -35, 8, -33, 5, 9, -27, 1, 9, -22, 10, -4, -9, -21, -35, -19, -17, 17, 9, 49, 7, -32, -34, 11, 10, -3, -18, -30, 4, -21, 33, -15, -8, -9, -11, 7, 19, -30, 8, 3, 1, 14, -13, 41, -17, 30, -36, -10, -26, 11, 12, -26, -36, 23, -20, 23, 47, 30, -11, 5, -21, 7, 36, 40, 3, 15, -29, 3, -6, 24, -34, 7, -1, 16, 18, 10, -18, -22, 5, -38, -21, -9, -8, 1, 17, 7, -18, 29, 15, 43, 18, 20, 7, -55, -45, 35, 26, 13, -17, 14, 26, -13, 21, 8, -17, 0, -20, -38, -29, 21, -16, -55, -35, 1, -1, -3, -20, -15, -13, 7, -1, -32, 27, -21, -19, 13, -41, -15, 4, -48, -4, 21, -35, 3, -11, 10, -25, 6, 30, -15, 0, -50, -23, -1, 19, -3, 1, 6, 10, -3, -23, -18, 1, 12, 40, 9, -48, -4, -33, -20, -43, 4, -9, 14, 16, -46, -4, -18, -36, 16, -25, -16, -24, -20, -30, -12, 7, -30, -16, -4, -18, 36, 5, 9, 20, 21, 18, 20, 14, 3, 22, 30, -21, 9, 15, 14, 21, -8, -22, -10, -12, -6, -13, -33, -18, -35, -32, -12, 4, -10, 15, -44, -8, 7, -22, -40, -24, 15, 8, 26, -43, 31, -14, -19, -5, -20, -22, 7, 46, -37, -32, -20, -24, -20, -46, 20, 15, 12, -11, -6, 46, -20, -33, 2, -3, -32, -10, -22, -29, -26, -9, -6, -8, 7, -9, -43, -2, -7, -41, -38, -13, 38, 31, -7, -3, 6, 10, 2, 17, 0, 12, -5, 12, -36, 23, 16, -20, -29, 1, 3, -18, 10, -17, 2, 2, 14, -13, 7, -4, -18, 7, 2, -45, -24, -24, -16, 1, 0, -29, 27, 35, 26, -24, -21, 23, 15, -26, 44, 18, 14, 12, -25, 18, 12, 35, -35, -8, -16, 17, -13, 34, -11, -11, -14, -18, 14, -20, -12, 4, 43, 2, -4, -22, -38, -34, 18, -1, 0, -19, -56, -32, -48, -32, 18, -14, 4, -44, -7, 35, 0, 14, -18, -19, -55, -25, 35, 38, -25, 13, -14, -26, 20, 25, -16, -9, -10, -14, 13, -2, -18, -32, 35, -2, 0, -13, -34, 10, 7, -42, -44, -25, -54, -11, 25, 77, -24, -4, -14, 46, -9, -5, -7, 2, 19, 19, 24, 39, 33, -5, -2, 29, 7, -7, 18, 8, -47, -20, -18, -7, 4, -58, -27, -40, -58, -21, 0, 13, 1, -23, -10, 2, -29, -14, -68, -36, 7, -35, -25, -11, -41, -11, -24, -4, 3, -24, -16, 9, 0, -11, 16, 27, -35, -27, 24, 20, 28, 7, 21, 50, -12, -1, -8, 9, 12, -31, 15, 34, 2, -11, -21, -34, -9, -23, -5, 2, -17, 58, 9, 3, 23, 12, 20, -15, 36, 22, 39, -12, -9, 56, 18, -25, 29, 31, 14, -55, -19, -45, 21, -26, -30, 37, 7, -18, 44, -21, 30, -4, 2, -16, -11, 5, -17, -36, 13, 51, -15, 14, -2, 3, -41, 4, 13, 24, -40, -4, 21, 24, -23, -6, -11, -36, 5, -5, 18, -13, 19, 11, -24, -5, 17, 16, -17, -29, -1, -10, -26, -44, 25, -52, -8, -22, -18, -3, 27, 6, -42, -36, 46, -7, -24, -34, -7, 26, -20, -2, -37, 30, -8, -25, 37, -17, -36, -47, 58, 25, 17, 19, 35, -14, -2, 13, -2, -48, 2, -17, -20, -21, -20, 14, -5, 5, 21, -18, 1, -4, -5, 22, -35, -70, -15, -8, -9, 19, -28, -4, 27, -12, 16, -30, -9, 0, 50, 7, -15, 13, -18, -16, 14, -12, 1, -10, -13, -19, -21, -23, -23, -15, -24, -45, -22, -33, 17, -13, -42, -10, -23, 8, -17, -12, -26, -42, -25, -41, 10, 16, -27, 10, -48, -18, -23, -19, 15, 7, -13, 40, -17, -28, 9, 32, -41, -26, 2, 2, -22, 12, 6, 19, -29, 17, 13, 25, -9, -4, -11, 5, -23, 22, -23, -13, 15, -8, -16, -24, -17, 9, -14, 1, -1, 7, 25, -35, 4, 50, -17, 7, 32, -30, 15, 30, 9, 12, 27, -13, -6, -1, -18, 0, -41, 81, -7, -14, 14, -55, 11, -21, -2, 7, 3, -1, -37, 16, 1, 5, -55, 20, 22, -15, 2, -19, -21, 16, -25, 0, -27, 18, -22, 8, -18, -11, 14, 13, -30, -15, 37, 19, -38, -33, 45, -9, 19, -14, 49, 14, -21, -28, -36, -42, -15, -34, -27, -27, 21, -6, -24, -14, -42, -10, -33, -24, 6, 15, 25, -33, 17, 33, -15, -19, -24, 37, -1, -31, 22, -32, -40, -11, 21, 0, 31, 13, -1, -4, -19, -9, 11, 13, -21, 39, 25, -29, 21, -13, -2, -19, -3, -43, -42, -35, -6, 2, -26, 9, -13, -42, 0, 31, 23, 37, 11, 24, 37, 12, 20, 42, -85, 15, 1, 28, -11, 40, -16, -19, -41, -22, -8, -46, -2, -25, -24, -33, 24, 37, -1, 4, -4, 11, -52, 31, -11, -1, -12, -35, 15, -6, -36, -9, -18, -27, 23, -23, 40, -7, 5, -15, -11, -10, 1, -30, 28, -7, -6, 34, 3, -9, 21, 3, 4, -18, 17, 10, -21, 20, 8, 5, -9, -40, -14, -26, -24, -37, -47, -16, 28, -9, 11, -34, 45, 21, -43, 12, 14, -12, -4, -33, -2, -1, 12, 16, -7, -23, 32, 10, 17, -9, -26, 21, 31, -30, -27, 14, -20, 22, -15, 9, -41, -26, 3, 8, -37, -9, 15, -34, 7, -15, 24, 30, 9, -9, 54, 24, -33, -9, 13, 12, 1, -35, -40, 26, -8, 7, -11, 5, 45, 1, -15, -38, 12, 22, -4, 20, -40, 44, -30, -19, -13, 26, -18, -4, -13, -9, -15, 32, 23, 8, 21, 5, -12, -23, 9, 1, -21, -18, 7, -6, -29, 2, 16, 29, -9, -43, 1, 53, 46, -55, -39, 14, 29, 19, -17, -27, 18, -12, 22, -49, -26, 5, -36, -4, -37, -24, -9, 30, -14, -15, -47, -19, -34, -33, 18, 30, 12, 10, 8, -1, 31, 12, 11, 41, 33, 18, 6, -8, -12, -18, -9, -24, -46, -46, 4, 19, -30, -61, -27, -53, 25, 3, -15, -41, -9, -37, -12, -21, 34, -11, -7, 13, -10, -25, -17, -29, 6, -9, -17, -4, -23, -2, -16, 10, -43, 5, -33, -3, -5, -15, 32, 23, -2, -16, -6, -29, -20, -29, -13, -20, -4, -24, -37, 15, -5, -24, 18, -22, -22, 0, 4, -13, -21, -5, -16, 1, -25, -25, 16, -2, -8, 29, 28, -24, 58, 36, 20, -3, 6, -32, 21, 17, 16, 65, 18, 14, 12, 21, -16, -54, -21, -13, 35, -42, -9, -18, -25, -5, 25, -9, -12, -2, -21, 4, -9, 28, -6, -1, 27, 7, -3, 14, 19, 30, -4, -51, 12, -3, 3, 8, 1, -68, 10, 17, 14, -15, -9, 17, -30, 4, 16, 25, -13, -16, 16, -23, -38, 4, 28, 10, -42, -4, 5, 16, 18, -22, -9, -11, 18, -14, -47, 0, 23, -7, 6, -7, -28, 41, -25, 12, 48, 24, -7, -22, 30, 42, -9, -24, -22, -1, -32, 4, -34, 7, 16, 27, -14, -8, -20, 3, -14, 5, -28, -29, -17, -48, -9, -58, -15, -29, -44, -28, 15, -20, -29, 10, -7, 29, -7, 5, 21, 13, -12, 1, 49, 41, -12, -24, 47, 17, 5, 39, -16, 48, -11, -28, 19, -21, -38, -9, -26, -33, 15, 22, 13, -19, 22, -23, -14, -60, 42, -10, -16, 13, 1, 26, -53, -34, 2, -18, 11, -14, 23, 6, 3, 7, 3, -30, 13, 12, -9, -7, 34, 48, -8, -31, 18, 42, -13, -12, 18, -12, -21, -16, 1, -8, -23, 9, -46, -24, -2, -12, 2, -59, 9, 23, -21, -3, 17, 35, 6, -18, 51, 37, -49, -70, -6, 12, 17, -2, 21, -11, 13, -16, -21, 9, -39, -19, -15, -4, 0, 8, -58, -53, -7, -20, 29, -23, -43, -14, -26, -13, 37, 31, 0, 6, 14, -4, 11, -11, 31, -6, -17, -8, 7, 8, 8, 15, 1, 10, -7, 17, -37, -5, -10, 35, -2, -17, 13, 10, 0, -26, -4, -27, -24, -7, 7, -15, 2, -18, -21, -23, -36, -5, -32, -25, -33, -19, -31, -39, -4, 2, -38, -5, -38, 5, -2, -30, 9, 11, -52, -27, 18, 17, 21, 22, -38, -29, 27, 32, 9, -6, 25, 4, 18, 40, 8, 22, 11, -21, -25, -33, 12, -43, -37, -11, -20, -24, -12, -34, 3, 2, -6, 1, 0, 14, 16, 28, 28, 35, -1, -1, 33, 10, 22, 12, -18, 26, 15, 45, 6, -8, -6, 12, -42, -8, -11, 2, -47, -29, 5, -28, -35, 25, 0, 11, -28, 6, 19, -33, -26, -45, -11, 28, -31, -4, 0, 16, -28, -7, -30, -29, -2, -34, -13, -8, -17, -11, -33, -17, 6, 13, -3, 12, -4, -28, 18, -11, -8, 37, -26, 1, -15, 19, 18, -27, -9, -26, 7, 32, 13, 35, -19, -56, 6, -39, 12, -3, -5, -19, 18, 33, 10, 34, 3, -18, -18, -46, 21, 15, 3, 50, 11, 9, -12, -17, -14, 3, -31, 10, -1, -27, -18, 67, 20, -53, -31, 2, -4, -25, 45, -6, -14, 8, -1, -3, 6, 26, -6, -35, -7, -27, 13, 9, 2, -6, 2, -29, 23, 15, -40, -55, 35, 7, 6, -22, 8, 24, -39, -11, -4, -2, -20, -32, 39, -7, -31, -42, 29, -9, -42, 9, -34, -2, -29, -15, -50, -4, 2, 41, -22, -21, 10, -5, -24, -1, 11, 6, 9, -22, -23, 37, 28, -1, -17, 7, 8, 11, 4, 4, 12, 12, -2, -31, -40, 6, -5, 6, -35, 31, -48, -6, 2, -15, -6, -23, -22, 5, 0, 18, -14, -3, 21, 1, 20, -16, 13, 16, 4, 27, 3, 35, -6, 1, 1, 5, 11, -12, 5, -23, 4, -24, -7, -26, -40, -34, -19, -40, 7, -28, -21, 6, -24, -17, 10, -46, 3, 5, -12, -7, -8, 11, -54, -20, 1, 0, 0, -14, -10, -11, -10, 0, -3, -34, -3, 16, -38, 3, 17, 30, 10, 7, 15, -6, -19, -45, 8, -20, -27, 19, -10, 27, -20, 26, -1, -2, -9, -2, -21, 20, -24, -7, -9, 18, 17, 12, 23, 6, 1, 38, 29, 22, 49, -20, 11, -9, -28, 13, 8, -18, 13, -19, -23, 3, 6, -20, 9, -1, 11, 38, 23, -4, 1, 3, 9, -11, 2, 3, 42, 15, 16, 15, 1, 22, -21, -18, 5, 37, -14, -18, 13, 28, 6, -2, -28, -33, 7, 3, 5, -7, 13, 11, -68, -15, 47, 30, -41, -7, 47, 20, -37, -16, 25, 21, -34, -14, -23, -25, -11, 25, 9, -16, 20, 3, -7, -29, 0, 0, -22, -7, 13, -17, 35, 23, 17, -15, -8, -22, 29, -10, -60, -23, 14, 15, 16, 27, -40, 4, -10, -6, -37, -9, -9, -15, 24, -12, -12, -39, 17, 30, -5, -66, -23, -23, -22, -23, 36, 28, 13, -30, 16, 15, 13, -17, 34, 13, -8, 23, 24, 26, 4, 10, -22, 1, -5, 3, -20, -32, -19, -51, 13, 0, -8, -39, -16, -49, 23, 16, -8, -4, -24, -9, 0, -9, -1, 29, -24, 4, -8, 3, -62, -2, 3, -51, -5, -25, -12, -22, 20, -41, 15, -52, 10, -15, 3, 3, 22, 8, -8, 24, 8, -11, -10, -40, 7, 2, 7, 10, 1, 8, -15, 2, 8, 12, -25, -6, -17, 21, 32, -33, -18, 11, 1, 37, 22, 17, 40, 24, -4, 11, 11, 20, 39, 23, 33, 21, -18, -12, -27, -17, 3, 14, -17, 42, -17, 13, -55, -1, -44, 13, 9, 20, -12, 6, 13, -30, 7, 7, 10, 6, 8, 25, -30, -24, 47, 11, -8, -18, 30, 16, 12, -2, -47, -21, -14, -14, -24, -19, 48, -11, -25, -26, -6, 5, -6, -7, -10, 0, -5, -31, -29, -10, -1, 11, -15, -4, 37, 21, 6, -6, 22, -2, -52, -19, 19, 21, -8, -27, 14, 5, -9, 9, 20, 40, 1, -5, -20, 19, -18, -19, -1, 7, 9, 13, -7, 21, -7, -4, -3, -17, 3, 29, -5, 12, -10, -23, -36, -35, 2, -11, -13, -41, -30, 6, -17, 26, -28, 5, 13, 8, 51, -3, 26, 61, 1, 40, 39, -26, 26, -13, -40, -25, 11, 9, -26, -8, -31, -17, -19, -45, -21, 14, -25, -22, -13, 28, -28, -13, -31, 15, -19, -13, 0, -25, -21, -20, -32, -18, -13, -20, 36, -15, 59, -17, 24, -21, 15, -25, 6, -42, 6, -5, -42, -7, 8, 21, 25, -15, 9, 27, 34, -2, 31, -20, -24, -49, 0, 3, 5, -11, -16, -3, -51, 41, -3, -10, -12, -8, -10, 4, 26, 13, 1, -13, 13, 21, -22, 16, 18, -18, -11, -11, 17, 29, -11, 55, -42, 34, -43, -7, 10, 16, 8, 14, 12, 10, -30, -12, -4, 36, -15, 44, -34, 24, -27, 31, 2, -28, 20, -7, 22, -19, 1, -5, -26, -32, -16, 54, 12, -17, 9, 1, 10, 23, -35, -7, -54, 20, -41, 29, -36, 20, -2, -33, -8, -9, 23, -28, -3, 7, -15, -39, 16, -23, 4, -41, 9, -7, -27, -2, -19, 5, 47, 12, -11, -25, 25, -16, -8, 8, -10, -8, -25, -3, -4, 19, 31, 12, -38, -39, 41, 36, -1, 41, -10, 4, 10, 9, 12, -14, 5, -3, -35, -11, 12, -33, -2, -43, -3, -33, 16, -15, 46, -10, -47, -18, -21, 30, 17, 21, -12, 15, -19, -5, 6, 0, 5, -5, 7, -4, 25, -11, 4, -26, -31, -18, 5, -26, -34, -22, -15, 14, -13, 5, -2, -24, -26, -28, -29, 10, -4, -32, -37, -31, -18, -2, -12, -4}

#define TENSOR_LSTM_LSTM_CELL_RECURRENT_KERNEL_0_DEC_BITS {8}

#define TENSOR_LSTM_LSTM_CELL_BIAS_0 {2, 4, 5, 3, 4, 4, 3, 3, 6, 5, 4, 5, 4, 5, 2, 4, 4, 5, 5, 5, -1, 3, 5, 5, 4, 4, 4, 3, 6, 4, 4, 4, 4, 5, 5, 2, 6, 4, 5, 3, 3, 6, 3, 5, 5, 6, 5, 4, 3, 3, 5, 5, 66, 69, 69, 68, 69, 69, 67, 66, 70, 69, 69, 69, 68, 69, 67, 68, 68, 68, 68, 68, 64, 68, 69, 69, 67, 69, 68, 66, 70, 68, 68, 69, 68, 69, 69, 66, 69, 69, 68, 69, 65, 69, 67, 70, 68, 70, 70, 68, 67, 67, 68, 69, 1, 2, -1, -3, -4, -5, 1, 3, -4, 3, -2, 3, -2, 1, -3, -2, -2, -3, 3, 0, 1, -1, -2, 2, 4, -1, -3, 0, 3, 3, 0, -2, 2, -1, -3, 4, 3, -1, -2, -2, -3, 2, 2, -2, 0, 2, -2, -3, 2, 3, 3, 3, 4, 5, 5, 5, 5, 5, 5, 3, 7, 6, 6, 6, 6, 6, 4, 5, 6, 5, 6, 6, 0, 5, 6, 6, 5, 6, 5, 4, 6, 5, 5, 6, 6, 6, 6, 3, 6, 5, 6, 6, 4, 6, 5, 6, 7, 7, 6, 5, 4, 4, 5, 6}

#define TENSOR_LSTM_LSTM_CELL_BIAS_0_DEC_BITS {6}

#define LSTM_BIAS_LSHIFT {6}

#define LSTM_OUTPUT_RSHIFT {5}

#define TENSOR_DENSE_KERNEL_0 {15, -83, 51, -78, 62, 30, -36, 45, 99, -81, 18, -57, -67, 79, -67, 85, 19, 5, 15, 100, 89, 85, 55, -65, 12, 43, 76, 11, -29, 81, 77, -82, -26, -1, -105, -8, 2, 25, 81, 16, 84, 50, 58, 24, 91, -66, 5, -56, 1, 16, -41, 57, -36, 59, -55, -40, -87, -62, -79, -20, -2, -54, -45, -93, -85, 31, 84, -55, -12, -13, -51, 29, -47, 91, -27, -74, 56, -23, -41, -33, -27, 73, 49, 32, 11, 90, -22, 70, 30, -67, 32, 7, -88, -94, -58, -11, 33, -14, -102, 47, 32, -79, 33, 47, -73, 35, 83, 17, -14, -12, 78, 64, 90, 47, -19, -75, -44, -18, 33, 68, 68, -42, 50, -45, -69, -22, -17, 78, 59, -54, -7, -28, -86, -30, -44, 70, -102, 23, 12, 23, -40, -22, -67, 39, -4, -61, -58, 16, 62, 17, -81, -54, -74, -53, 75, 81, -84, 89, 86, 34, 26, -59, 30, -96, 30, 50, 11, -38, 74, 55, -65, -67, 52, -83, 59, 55, -31, 37, -75, -34, 36, 1, -14, -80, 44, -7, 36, 17, -34, 44, -31, 42, -35, 29, 44, -23, 3, -49, 57, -64, -8, 96, -22, -18, 1, -53, 84, 27, 54, 50, 50, 21, 2, -34, -59, 56, -71, -39, -68, -5, -54, -4, 10, 66, 44, 31, 94, -47, -8, -14, 16, 7, -57, 26, -14, -14, 73, 85, -3, 54, -57, -53, 62, -62, 31, 95, 39, 92, -69, -57, 28, 4, -8, 43, 98, -10, 88, -96, -76, -18, -63, 26, -64, 88, 92, 82, -41, -66, -5, -40, -24, -46, -28, -84, -38, -34, -63, -42, 101, -8, 74, -41, 27, -49, -9, 25, -39, 71, 20, -15, 67, -13, 67, -24, -46, -31, -12, -38, -34, 15, 59, 74, 91, -53, -44, 21, 4, 79, 1, 66, -9, -35, -31, 61, 37, -29, 4, 55, 6, 45, 9, -69, -56, 21, -46, 10, 19, 88, -54, -43, -77, -86, -9, -90, -46, 81, 77, -76, -73, -49, -67, -53, 81, 78, -29, 50, 33, -6, 52, 51, 6, -79, -4, -55, 8, -49, -54, -18, -11, 27, 61, 81, 43, -7, 6, 53, -16, 2, -46, -38, -37, 38, -68, -35, 64, -39, -4, -62, 62, -22, -38, -57, 59, 40, 63, -22, -24, 59, 102, 28, -15, 76, 97, -49, -46, -7, 93, -51, -61, -6, 72, 0, -63, -67, 77, 76, 42, 0, 69, -72, -50, 54, 42, -83, 9, 67, -38, 65, 51, 15, -93, -30, -57, -16, -32, 17, -34, -68, -92, -51, 26, 58, 29, -52, -52, 43, 31, 47, 89, -7, 74, 36, -31, -16, 1, 52, -63, 92, 38, -42, -88, 89, 34, -66, -18, 36, 65, -29, -41, 35, 87, -94, -19, -2, -66, 21, -21, -3, -59, -7, -80, -47, -15, 67, -78, 48, -19, -30, 21, 88, 10, -77, -50, 92, 89, 16, -43, -94, -30, 42, 46, -1, 58, -3, -64, -30, -8, 46, 85, -86, 15, 33, -84, 23, 49, -72, 44, -28, 1, 35, -7, 56, 66, 9, 66, -42, -35, -80, -32, -30, -21, 74, -65, 62, -87, -17, 84, 24, -38, -49, -59, 39, -72, -80, 28, 0, -88, 87, 68, 19, 5, 40, 38, 69, -82, 29, 50, -39, 18, 67, -47, -56, 16, 42, -80, 35, -92, 85, 58, -8, -92, 77, -87, 39, 2, 5, 99, -27, -42, -1, 31, 2, -39, 12, 1, -16, 85, 97, 58, 16, -31, -13, 11, -53, 32, -75, -28, -22, 40, 18, 73, 59, -94, -42, -6, 45, 17, 44, -43, 37, 58, -61, -7, -18, -44, -12, 26, -1, 77, 38, -14, -30, -2, -5, -46, -44, -14, -33, -59, 72, 19, 36, -80, -67, -13, -8, 26, 0, -55, -71, -33, 93, -20, 60, -74, 69, 6, 18, -51, -27, 20, -12, 90, -9, -6, 44, -6, 65, 67, 26, -18, -69, 86, 39, 69, -63, 18, -96, -97, 48, 91, 34, 11, 69, -8, -20, -24, -95, -26, 18, -48, -63, 81, -43, -22, 60}

#define TENSOR_DENSE_KERNEL_0_DEC_BITS {8}

#define TENSOR_DENSE_BIAS_0 {73, -24, 51, -37, 40, -28, -5, -20, -68, 21, -69, -50, 72}

#define TENSOR_DENSE_BIAS_0_DEC_BITS {10}

#define DENSE_BIAS_LSHIFT {5}

#define DENSE_OUTPUT_RSHIFT {11}


/* output q format for each layer */
#define INPUT_1_OUTPUT_DEC 4
#define INPUT_1_OUTPUT_OFFSET 0
#define CONV1D_OUTPUT_DEC 4
#define CONV1D_OUTPUT_OFFSET 0
#define RE_LU_OUTPUT_DEC 4
#define RE_LU_OUTPUT_OFFSET 0
#define LSTM_OUTPUT_DEC 7
#define LSTM_OUTPUT_OFFSET 0
#define FLATTEN_OUTPUT_DEC 7
#define FLATTEN_OUTPUT_OFFSET 0
#define DENSE_OUTPUT_DEC 4
#define DENSE_OUTPUT_OFFSET 0
#define SOFTMAX_OUTPUT_DEC 7
#define SOFTMAX_OUTPUT_OFFSET 0

/* bias shift and output shift for none-weighted layer */

/* tensors and configurations for each layer */
static int8_t nnom_input_data[450] = {0};

const nnom_shape_data_t tensor_input_1_dim[] = {150, 3};
const nnom_qformat_param_t tensor_input_1_dec[] = {4};
const nnom_qformat_param_t tensor_input_1_offset[] = {0};
const nnom_tensor_t tensor_input_1 = {
    .p_data = (void*)nnom_input_data,
    .dim = (nnom_shape_data_t*)tensor_input_1_dim,
    .q_dec = (nnom_qformat_param_t*)tensor_input_1_dec,
    .q_offset = (nnom_qformat_param_t*)tensor_input_1_offset,
    .qtype = NNOM_QTYPE_PER_TENSOR,
    .num_dim = 2,
    .bitwidth = 8
};

const nnom_io_config_t input_1_config = {
    .super = {.name = "input_1"},
    .tensor = (nnom_tensor_t*)&tensor_input_1
};
const int8_t tensor_conv1d_kernel_0_data[] = TENSOR_CONV1D_KERNEL_0;

const nnom_shape_data_t tensor_conv1d_kernel_0_dim[] = {3, 3, 26};
const nnom_qformat_param_t tensor_conv1d_kernel_0_dec[] = TENSOR_CONV1D_KERNEL_0_DEC_BITS;
const nnom_qformat_param_t tensor_conv1d_kernel_0_offset[] = {0};
const nnom_tensor_t tensor_conv1d_kernel_0 = {
    .p_data = (void*)tensor_conv1d_kernel_0_data,
    .dim = (nnom_shape_data_t*)tensor_conv1d_kernel_0_dim,
    .q_dec = (nnom_qformat_param_t*)tensor_conv1d_kernel_0_dec,
    .q_offset = (nnom_qformat_param_t*)tensor_conv1d_kernel_0_offset,
    .qtype = NNOM_QTYPE_PER_TENSOR,
    .num_dim = 3,
    .bitwidth = 8
};
const int8_t tensor_conv1d_bias_0_data[] = TENSOR_CONV1D_BIAS_0;

const nnom_shape_data_t tensor_conv1d_bias_0_dim[] = {26};
const nnom_qformat_param_t tensor_conv1d_bias_0_dec[] = TENSOR_CONV1D_BIAS_0_DEC_BITS;
const nnom_qformat_param_t tensor_conv1d_bias_0_offset[] = {0};
const nnom_tensor_t tensor_conv1d_bias_0 = {
    .p_data = (void*)tensor_conv1d_bias_0_data,
    .dim = (nnom_shape_data_t*)tensor_conv1d_bias_0_dim,
    .q_dec = (nnom_qformat_param_t*)tensor_conv1d_bias_0_dec,
    .q_offset = (nnom_qformat_param_t*)tensor_conv1d_bias_0_offset,
    .qtype = NNOM_QTYPE_PER_TENSOR,
    .num_dim = 1,
    .bitwidth = 8
};

const nnom_qformat_param_t conv1d_output_shift[] = CONV1D_OUTPUT_RSHIFT;
const nnom_qformat_param_t conv1d_bias_shift[] = CONV1D_BIAS_LSHIFT;
const nnom_conv2d_config_t conv1d_config = {
    .super = {.name = "conv1d"},
    .qtype = NNOM_QTYPE_PER_TENSOR,
    .weight = (nnom_tensor_t*)&tensor_conv1d_kernel_0,
    .bias = (nnom_tensor_t*)&tensor_conv1d_bias_0,
    .output_shift = (nnom_qformat_param_t *)&conv1d_output_shift, 
    .bias_shift = (nnom_qformat_param_t *)&conv1d_bias_shift, 
    .filter_size = 26,
    .kernel_size = {3},
    .stride_size = {3},
    .padding_size = {0, 0},
    .dilation_size = {1},
    .padding_type = PADDING_VALID
};
const int8_t tensor_lstm_lstm_cell_kernel_0_data[] = TENSOR_LSTM_LSTM_CELL_KERNEL_0;

const nnom_shape_data_t tensor_lstm_lstm_cell_kernel_0_dim[] = {26, 208};
const nnom_qformat_param_t tensor_lstm_lstm_cell_kernel_0_dec[] = TENSOR_LSTM_LSTM_CELL_KERNEL_0_DEC_BITS;
const nnom_qformat_param_t tensor_lstm_lstm_cell_kernel_0_offset[] = {0};
const nnom_tensor_t tensor_lstm_lstm_cell_kernel_0 = {
    .p_data = (void*)tensor_lstm_lstm_cell_kernel_0_data,
    .dim = (nnom_shape_data_t*)tensor_lstm_lstm_cell_kernel_0_dim,
    .q_dec = (nnom_qformat_param_t*)tensor_lstm_lstm_cell_kernel_0_dec,
    .q_offset = (nnom_qformat_param_t*)tensor_lstm_lstm_cell_kernel_0_offset,
    .qtype = NNOM_QTYPE_PER_TENSOR,
    .num_dim = 2,
    .bitwidth = 8
};
const int8_t tensor_lstm_lstm_cell_recurrent_kernel_0_data[] = TENSOR_LSTM_LSTM_CELL_RECURRENT_KERNEL_0;

const nnom_shape_data_t tensor_lstm_lstm_cell_recurrent_kernel_0_dim[] = {52, 208};
const nnom_qformat_param_t tensor_lstm_lstm_cell_recurrent_kernel_0_dec[] = TENSOR_LSTM_LSTM_CELL_RECURRENT_KERNEL_0_DEC_BITS;
const nnom_qformat_param_t tensor_lstm_lstm_cell_recurrent_kernel_0_offset[] = {0};
const nnom_tensor_t tensor_lstm_lstm_cell_recurrent_kernel_0 = {
    .p_data = (void*)tensor_lstm_lstm_cell_recurrent_kernel_0_data,
    .dim = (nnom_shape_data_t*)tensor_lstm_lstm_cell_recurrent_kernel_0_dim,
    .q_dec = (nnom_qformat_param_t*)tensor_lstm_lstm_cell_recurrent_kernel_0_dec,
    .q_offset = (nnom_qformat_param_t*)tensor_lstm_lstm_cell_recurrent_kernel_0_offset,
    .qtype = NNOM_QTYPE_PER_TENSOR,
    .num_dim = 2,
    .bitwidth = 8
};
const int8_t tensor_lstm_lstm_cell_bias_0_data[] = TENSOR_LSTM_LSTM_CELL_BIAS_0;

const nnom_shape_data_t tensor_lstm_lstm_cell_bias_0_dim[] = {208};
const nnom_qformat_param_t tensor_lstm_lstm_cell_bias_0_dec[] = TENSOR_LSTM_LSTM_CELL_BIAS_0_DEC_BITS;
const nnom_qformat_param_t tensor_lstm_lstm_cell_bias_0_offset[] = {0};
const nnom_tensor_t tensor_lstm_lstm_cell_bias_0 = {
    .p_data = (void*)tensor_lstm_lstm_cell_bias_0_data,
    .dim = (nnom_shape_data_t*)tensor_lstm_lstm_cell_bias_0_dim,
    .q_dec = (nnom_qformat_param_t*)tensor_lstm_lstm_cell_bias_0_dec,
    .q_offset = (nnom_qformat_param_t*)tensor_lstm_lstm_cell_bias_0_offset,
    .qtype = NNOM_QTYPE_PER_TENSOR,
    .num_dim = 1,
    .bitwidth = 8
};

const nnom_lstm_cell_config_t lstm_lstm_cell_config = {
    .super = {.name = "lstm"},
    .weights = (nnom_tensor_t*)&tensor_lstm_lstm_cell_kernel_0,
    .recurrent_weights = (nnom_tensor_t*)&tensor_lstm_lstm_cell_recurrent_kernel_0,
    .bias = (nnom_tensor_t*)&tensor_lstm_lstm_cell_bias_0,
    .q_dec_z = 4,
    .q_dec_h = 7,
    .q_dec_c = 2,
    .units = 52
};

const nnom_rnn_config_t lstm_config = {
    .super = {.name = "lstm"},
    .return_sequence = false,
    .stateful = false,
    .go_backwards = false
};

const nnom_flatten_config_t flatten_config = {
    .super = {.name = "flatten"}
};
const int8_t tensor_dense_kernel_0_data[] = TENSOR_DENSE_KERNEL_0;

const nnom_shape_data_t tensor_dense_kernel_0_dim[] = {52, 13};
const nnom_qformat_param_t tensor_dense_kernel_0_dec[] = TENSOR_DENSE_KERNEL_0_DEC_BITS;
const nnom_qformat_param_t tensor_dense_kernel_0_offset[] = {0};
const nnom_tensor_t tensor_dense_kernel_0 = {
    .p_data = (void*)tensor_dense_kernel_0_data,
    .dim = (nnom_shape_data_t*)tensor_dense_kernel_0_dim,
    .q_dec = (nnom_qformat_param_t*)tensor_dense_kernel_0_dec,
    .q_offset = (nnom_qformat_param_t*)tensor_dense_kernel_0_offset,
    .qtype = NNOM_QTYPE_PER_TENSOR,
    .num_dim = 2,
    .bitwidth = 8
};
const int8_t tensor_dense_bias_0_data[] = TENSOR_DENSE_BIAS_0;

const nnom_shape_data_t tensor_dense_bias_0_dim[] = {13};
const nnom_qformat_param_t tensor_dense_bias_0_dec[] = TENSOR_DENSE_BIAS_0_DEC_BITS;
const nnom_qformat_param_t tensor_dense_bias_0_offset[] = {0};
const nnom_tensor_t tensor_dense_bias_0 = {
    .p_data = (void*)tensor_dense_bias_0_data,
    .dim = (nnom_shape_data_t*)tensor_dense_bias_0_dim,
    .q_dec = (nnom_qformat_param_t*)tensor_dense_bias_0_dec,
    .q_offset = (nnom_qformat_param_t*)tensor_dense_bias_0_offset,
    .qtype = NNOM_QTYPE_PER_TENSOR,
    .num_dim = 1,
    .bitwidth = 8
};

const nnom_qformat_param_t dense_output_shift[] = DENSE_OUTPUT_RSHIFT;
const nnom_qformat_param_t dense_bias_shift[] = DENSE_BIAS_LSHIFT;
const nnom_dense_config_t dense_config = {
    .super = {.name = "dense"},
    .qtype = NNOM_QTYPE_PER_TENSOR,
    .weight = (nnom_tensor_t*)&tensor_dense_kernel_0,
    .bias = (nnom_tensor_t*)&tensor_dense_bias_0,
    .output_shift = (nnom_qformat_param_t *)&dense_output_shift,
    .bias_shift = (nnom_qformat_param_t *)&dense_bias_shift
};

const nnom_softmax_config_t softmax_config = {
    .super = {.name = "softmax"}
};
static int8_t nnom_output_data[13] = {0};

const nnom_shape_data_t tensor_output0_dim[] = {13};
const nnom_qformat_param_t tensor_output0_dec[] = {SOFTMAX_OUTPUT_DEC};
const nnom_qformat_param_t tensor_output0_offset[] = {0};
const nnom_tensor_t tensor_output0 = {
    .p_data = (void*)nnom_output_data,
    .dim = (nnom_shape_data_t*)tensor_output0_dim,
    .q_dec = (nnom_qformat_param_t*)tensor_output0_dec,
    .q_offset = (nnom_qformat_param_t*)tensor_output0_offset,
    .qtype = NNOM_QTYPE_PER_TENSOR,
    .num_dim = 1,
    .bitwidth = 8
};

const nnom_io_config_t output0_config = {
    .super = {.name = "output0"},
    .tensor = (nnom_tensor_t*)&tensor_output0
};
/* model version */
#define NNOM_MODEL_VERSION (10000*0 + 100*4 + 3)

/* nnom model */
static nnom_model_t* nnom_model_create(void)
{
	static nnom_model_t model;
	nnom_layer_t* layer[8];

	check_model_version(NNOM_MODEL_VERSION);
	new_model(&model);

	layer[0] = input_s(&input_1_config);
	layer[1] = model.hook(conv2d_s(&conv1d_config), layer[0]);
	layer[2] = model.active(act_relu(), layer[1]);
	layer[3] = model.hook(rnn_s(lstm_cell_s(&lstm_lstm_cell_config), &lstm_config), layer[2]);
	layer[4] = model.hook(flatten_s(&flatten_config), layer[3]);
	layer[5] = model.hook(dense_s(&dense_config), layer[4]);
	layer[6] = model.hook(softmax_s(&softmax_config), layer[5]);
	layer[7] = model.hook(output_s(&output0_config), layer[6]);
	model_compile(&model, layer[0], layer[7]);
	return &model;
}
